{"learner":{"attributes":{"best_iteration":"438","best_score":"0.3301222159376672","scikit_learn":"{\"_estimator_type\": \"regressor\"}"},"feature_names":["precision","backend","normalized_threshold","weighted_gate_count","depth","entanglement_metric","magic_metric","num_qubits","mul_qb_gate_density"],"feature_types":["int","int","float","float","float","float","float","float","float"],"gradient_booster":{"model":{"cats":{"enc":[],"feature_segments":[],"sorted_idx":[]},"gbtree_model_param":{"num_parallel_tree":"1","num_trees":"489"},"iteration_indptr":[0,1,2,3,4,5,6,7,8,9,10,11,12,13,14,15,16,17,18,19,20,21,22,23,24,25,26,27,28,29,30,31,32,33,34,35,36,37,38,39,40,41,42,43,44,45,46,47,48,49,50,51,52,53,54,55,56,57,58,59,60,61,62,63,64,65,66,67,68,69,70,71,72,73,74,75,76,77,78,79,80,81,82,83,84,85,86,87,88,89,90,91,92,93,94,95,96,97,98,99,100,101,102,103,104,105,106,107,108,109,110,111,112,113,114,115,116,117,118,119,120,121,122,123,124,125,126,127,128,129,130,131,132,133,134,135,136,137,138,139,140,141,142,143,144,145,146,147,148,149,150,151,152,153,154,155,156,157,158,159,160,161,162,163,164,165,166,167,168,169,170,171,172,173,174,175,176,177,178,179,180,181,182,183,184,185,186,187,188,189,190,191,192,193,194,195,196,197,198,199,200,201,202,203,204,205,206,207,208,209,210,211,212,213,214,215,216,217,218,219,220,221,222,223,224,225,226,227,228,229,230,231,232,233,234,235,236,237,238,239,240,241,242,243,244,245,246,247,248,249,250,251,252,253,254,255,256,257,258,259,260,261,262,263,264,265,266,267,268,269,270,271,272,273,274,275,276,277,278,279,280,281,282,283,284,285,286,287,288,289,290,291,292,293,294,295,296,297,298,299,300,301,302,303,304,305,306,307,308,309,310,311,312,313,314,315,316,317,318,319,320,321,322,323,324,325,326,327,328,329,330,331,332,333,334,335,336,337,338,339,340,341,342,343,344,345,346,347,348,349,350,351,352,353,354,355,356,357,358,359,360,361,362,363,364,365,366,367,368,369,370,371,372,373,374,375,376,377,378,379,380,381,382,383,384,385,386,387,388,389,390,391,392,393,394,395,396,397,398,399,400,401,402,403,404,405,406,407,408,409,410,411,412,413,414,415,416,417,418,419,420,421,422,423,424,425,426,427,428,429,430,431,432,433,434,435,436,437,438,439,440,441,442,443,444,445,446,447,448,449,450,451,452,453,454,455,456,457,458,459,460,461,462,463,464,465,466,467,468,469,470,471,472,473,474,475,476,477,478,479,480,481,482,483,484,485,486,487,488,489],"tree_info":[0,0,0,0,0,0,0,0,0,0,0,0,0,0,0,0,0,0,0,0,0,0,0,0,0,0,0,0,0,0,0,0,0,0,0,0,0,0,0,0,0,0,0,0,0,0,0,0,0,0,0,0,0,0,0,0,0,0,0,0,0,0,0,0,0,0,0,0,0,0,0,0,0,0,0,0,0,0,0,0,0,0,0,0,0,0,0,0,0,0,0,0,0,0,0,0,0,0,0,0,0,0,0,0,0,0,0,0,0,0,0,0,0,0,0,0,0,0,0,0,0,0,0,0,0,0,0,0,0,0,0,0,0,0,0,0,0,0,0,0,0,0,0,0,0,0,0,0,0,0,0,0,0,0,0,0,0,0,0,0,0,0,0,0,0,0,0,0,0,0,0,0,0,0,0,0,0,0,0,0,0,0,0,0,0,0,0,0,0,0,0,0,0,0,0,0,0,0,0,0,0,0,0,0,0,0,0,0,0,0,0,0,0,0,0,0,0,0,0,0,0,0,0,0,0,0,0,0,0,0,0,0,0,0,0,0,0,0,0,0,0,0,0,0,0,0,0,0,0,0,0,0,0,0,0,0,0,0,0,0,0,0,0,0,0,0,0,0,0,0,0,0,0,0,0,0,0,0,0,0,0,0,0,0,0,0,0,0,0,0,0,0,0,0,0,0,0,0,0,0,0,0,0,0,0,0,0,0,0,0,0,0,0,0,0,0,0,0,0,0,0,0,0,0,0,0,0,0,0,0,0,0,0,0,0,0,0,0,0,0,0,0,0,0,0,0,0,0,0,0,0,0,0,0,0,0,0,0,0,0,0,0,0,0,0,0,0,0,0,0,0,0,0,0,0,0,0,0,0,0,0,0,0,0,0,0,0,0,0,0,0,0,0,0,0,0,0,0,0,0,0,0,0,0,0,0,0,0,0,0,0,0,0,0,0,0,0,0,0,0,0,0,0,0,0,0,0,0,0,0,0,0,0,0,0,0,0,0,0,0,0,0,0,0,0,0,0,0,0,0,0,0,0,0,0,0,0,0,0,0,0,0,0,0,0,0,0,0,0,0,0,0,0,0,0,0,0,0,0,0,0,0,0,0,0,0,0,0,0],"trees":[{"base_weights":[5.160958E-3,-9.1064703E-1,2.971434E0,5.9918895E-2,-1.6293113E0,4.3015547E0,2.025067E0,-1.0351754E0,1.3326011E0,-1.7776418E0,-4.3781167E-1,3.7744317E0,2.1127462E-1,5.5250156E-1,3.6709535E0,-6.5964766E-2,-9.030685E-3,2.5649935E-2,6.292115E-2,-7.407906E-2,-5.880567E-2,-5.2085556E-2,5.349933E-2,1.19730234E-1,1.8713139E-1,-1.7200366E-2,5.173311E-2,1.9555297E-1,6.78757E-2],"categories":[],"categories_nodes":[],"categories_segments":[],"categories_sizes":[],"default_left":[0,0,0,0,0,0,0,0,0,0,0,0,0,0,0,0,0,0,0,0,0,0,0,0,0,0,0,0,0],"id":0,"left_children":[1,3,5,7,9,11,13,15,17,19,21,23,-1,25,27,-1,-1,-1,-1,-1,-1,-1,-1,-1,-1,-1,-1,-1,-1],"loss_changes":[6.686854E2,1.3121474E2,7.237659E1,1.1169719E2,1.9007507E1,1.3943176E1,8.236133E1,2.3715588E1,7.58107E0,3.4222412E0,2.0659021E1,1.106958E1,0E0,1.457642E1,4.3286835E1,0E0,0E0,0E0,0E0,0E0,0E0,0E0,0E0,0E0,0E0,0E0,0E0,0E0,0E0],"parents":[2147483647,0,0,1,1,2,2,3,3,4,4,5,5,6,6,7,7,8,8,9,9,10,10,11,11,13,13,14,14],"right_children":[2,4,6,8,10,12,14,16,18,20,22,24,-1,26,28,-1,-1,-1,-1,-1,-1,-1,-1,-1,-1,-1,-1,-1,-1],"split_conditions":[7.75707E-1,1E0,1E0,-1.4394331E-1,4.5963594E-1,1.6383966E0,5E-1,-5.739334E-1,1.936335E-1,-7.490255E-2,5E-1,5E-1,2.1127462E-1,1.6383966E0,1.5562319E0,-6.5964766E-2,-9.030685E-3,2.5649935E-2,6.292115E-2,-7.407906E-2,-5.880567E-2,-5.2085556E-2,5.349933E-2,1.19730234E-1,1.8713139E-1,-1.7200366E-2,5.173311E-2,1.9555297E-1,6.78757E-2],"split_indices":[5,1,1,5,5,5,2,5,5,3,2,2,0,5,3,0,0,0,0,0,0,0,0,0,0,0,0,0,0],"split_type":[0,0,0,0,0,0,0,0,0,0,0,0,0,0,0,0,0,0,0,0,0,0,0,0,0,0,0,0,0],"sum_hessian":[2.46E2,1.88E2,5.8E1,8E1,1.08E2,2.4E1,3.4E1,4.3E1,3.7E1,9.6E1,1.2E1,1.7E1,7E0,1.8E1,1.6E1,2.3E1,2E1,1.2E1,2.5E1,5.7E1,3.9E1,8E0,4E0,1.1E1,6E0,8E0,1E1,9E0,7E0],"tree_param":{"num_deleted":"0","num_feature":"9","num_nodes":"29","size_leaf_vector":"1"}},{"base_weights":[7.112715E-2,-7.4449974E-1,2.7019908E0,1.5040654E-1,-1.6586684E0,4.034998E0,1.7254808E0,-9.037635E-1,1.2748849E0,-1.8295268E0,-1.1178929E0,3.6764023E0,2.0345373E-1,7.323697E-1,3.9868274E0,-6.1772645E-2,-7.1699806E-3,2.1936227E-2,6.0713395E-2,-7.868469E-2,-6.413356E-2,-7.005423E-2,-2.964976E-2,1.1690812E-1,1.7924348E-1,-1.1053183E-2,7.8522965E-2,8.4151186E-2,2.1829781E-1],"categories":[],"categories_nodes":[],"categories_segments":[],"categories_sizes":[],"default_left":[0,0,0,0,0,0,0,0,0,0,0,0,0,0,0,0,0,0,0,0,0,0,0,0,0,0,0,0,0],"id":1,"left_children":[1,3,5,7,9,11,13,15,17,19,21,23,-1,25,27,-1,-1,-1,-1,-1,-1,-1,-1,-1,-1,-1,-1,-1,-1],"loss_changes":[5.1746497E2,1.5063039E2,7.369983E1,1.1041257E2,8.220383E0,9.595032E0,7.3982895E1,2.4485302E1,9.8153305E0,2.0906677E0,5.2549095E0,1.0791016E1,0E0,3.1242702E1,2.999649E1,0E0,0E0,0E0,0E0,0E0,0E0,0E0,0E0,0E0,0E0,0E0,0E0,0E0,0E0],"parents":[2147483647,0,0,1,1,2,2,3,3,4,4,5,5,6,6,7,7,8,8,9,9,10,10,11,11,13,13,14,14],"right_children":[2,4,6,8,10,12,14,16,18,20,22,24,-1,26,28,-1,-1,-1,-1,-1,-1,-1,-1,-1,-1,-1,-1,-1,-1],"split_conditions":[7.75707E-1,1E0,1E0,-1.4394331E-1,3.75E-1,1.6383966E0,1E0,-5.739334E-1,1.936335E-1,7.317073E-2,6.504065E-2,5E-1,2.0345373E-1,5E-1,3.75E-1,-6.1772645E-2,-7.1699806E-3,2.1936227E-2,6.0713395E-2,-7.868469E-2,-6.413356E-2,-7.005423E-2,-2.964976E-2,1.1690812E-1,1.7924348E-1,-1.1053183E-2,7.8522965E-2,8.4151186E-2,2.1829781E-1],"split_indices":[5,1,1,5,2,5,7,5,5,7,7,2,0,2,2,0,0,0,0,0,0,0,0,0,0,0,0,0,0],"split_type":[0,0,0,0,0,0,0,0,0,0,0,0,0,0,0,0,0,0,0,0,0,0,0,0,0,0,0,0,0],"sum_hessian":[2.41E2,1.84E2,5.7E1,9.3E1,9.1E1,2.4E1,3.3E1,4.8E1,4.5E1,6.9E1,2.2E1,1.9E1,5E0,2.3E1,1E1,2.4E1,2.4E1,1.4E1,3.1E1,2.7E1,4.2E1,7E0,1.5E1,1.2E1,7E0,1.3E1,1E1,5E0,5E0],"tree_param":{"num_deleted":"0","num_feature":"9","num_nodes":"29","size_leaf_vector":"1"}},{"base_weights":[-4.7580075E-2,-7.515969E-1,2.3793194E0,1.6078232E-1,-1.4775424E0,4.094457E0,1.2654508E0,-6.621111E-1,1.4076108E0,-1.6552757E0,-4.8981708E-1,3.6672165E0,1.923775E-1,3.974578E-1,3.0710042E0,-5.8243982E-2,-2.8338244E-3,4.2468507E-2,6.909975E-2,-7.008506E-2,-5.612971E-2,-4.9885936E-2,4.3319162E-2,1.1978239E-1,1.7446542E-1,-1.8312044E-2,5.9721105E-2,1.8480293E-1,4.8140515E-2],"categories":[],"categories_nodes":[],"categories_segments":[],"categories_sizes":[],"default_left":[0,0,0,0,0,0,0,0,0,0,0,0,0,0,0,0,0,0,0,0,0,0,0,0,0,0,0,0,0],"id":2,"left_children":[1,3,5,7,9,11,13,15,17,19,21,23,-1,25,27,-1,-1,-1,-1,-1,-1,-1,-1,-1,-1,-1,-1,-1,-1],"loss_changes":[3.8806628E2,1.1665718E2,9.711084E1,8.0179276E1,1.712294E1,6.610138E0,4.8549152E1,2.3823454E1,3.4967995E0,2.5226746E0,2.0063372E1,5.5928497E0,0E0,2.159828E1,3.1662918E1,0E0,0E0,0E0,0E0,0E0,0E0,0E0,0E0,0E0,0E0,0E0,0E0,0E0,0E0],"parents":[2147483647,0,0,1,1,2,2,3,3,4,4,5,5,6,6,7,7,8,8,9,9,10,10,11,11,13,13,14,14],"right_children":[2,4,6,8,10,12,14,16,18,20,22,24,-1,26,28,-1,-1,-1,-1,-1,-1,-1,-1,-1,-1,-1,-1,-1,-1],"split_conditions":[6.136244E-1,1E0,1E0,3.1063905E-2,5E-1,1.6383966E0,5E-1,-5.739334E-1,2.5E-1,-7.490255E-2,-7.490255E-2,6.25E-1,1.923775E-1,1.9058472E0,1.5562319E0,-5.8243982E-2,-2.8338244E-3,4.2468507E-2,6.909975E-2,-7.008506E-2,-5.612971E-2,-4.9885936E-2,4.3319162E-2,1.1978239E-1,1.7446542E-1,-1.8312044E-2,5.9721105E-2,1.8480293E-1,4.8140515E-2],"split_indices":[5,1,1,5,2,5,2,5,2,3,3,2,0,5,3,0,0,0,0,0,0,0,0,0,0,0,0,0,0],"split_type":[0,0,0,0,0,0,0,0,0,0,0,0,0,0,0,0,0,0,0,0,0,0,0,0,0,0,0,0,0],"sum_hessian":[2.27E2,1.76E2,5.1E1,7.8E1,9.8E1,2E1,3.1E1,4.7E1,3.1E1,8.3E1,1.5E1,1.4E1,6E0,2.1E1,1E1,1.9E1,2.8E1,1.8E1,1.3E1,4.2E1,4.1E1,1E1,5E0,9E0,5E0,1.2E1,9E0,5E0,5E0],"tree_param":{"num_deleted":"0","num_feature":"9","num_nodes":"29","size_leaf_vector":"1"}},{"base_weights":[4.6084717E-2,-9.060228E-1,2.0237281E0,-1.4260279E-1,-1.5142579E0,3.298078E0,1.0119587E0,-1.4069667E0,7.309031E-1,-1.6549697E0,-1.0238482E0,1.674133E0,3.9671297E0,2.1847758E-1,3.0471275E0,-6.4971805E-2,-3.2099493E-2,1.4673416E-3,4.7687422E-2,-6.825237E-2,-5.073443E-2,-6.547236E-2,-3.0033126E-2,4.656835E-2,7.479418E-2,1.3363424E-1,1.8595517E-1,-1.5615569E-2,5.180029E-2,5.8140613E-2,1.9598584E-1],"categories":[],"categories_nodes":[],"categories_segments":[],"categories_sizes":[],"default_left":[0,0,0,0,0,0,0,0,0,0,0,0,0,0,0,0,0,0,0,0,0,0,0,0,0,0,0,0,0,0,0],"id":3,"left_children":[1,3,5,7,9,11,13,15,17,19,21,23,25,27,29,-1,-1,-1,-1,-1,-1,-1,-1,-1,-1,-1,-1,-1,-1,-1,-1],"loss_changes":[4.4653528E2,7.4283676E1,9.906235E1,7.8576355E1,5.981537E0,3.6453766E1,6.945096E1,4.690178E0,1.5038279E1,2.7446136E0,3.1550274E0,1.0768471E0,8.831055E0,2.2211542E1,3.767134E1,0E0,0E0,0E0,0E0,0E0,0E0,0E0,0E0,0E0,0E0,0E0,0E0,0E0,0E0,0E0,0E0],"parents":[2147483647,0,0,1,1,2,2,3,3,4,4,5,5,6,6,7,7,8,8,9,9,10,10,11,11,12,12,13,13,14,14],"right_children":[2,4,6,8,10,12,14,16,18,20,22,24,26,28,30,-1,-1,-1,-1,-1,-1,-1,-1,-1,-1,-1,-1,-1,-1,-1,-1],"split_conditions":[4.5963594E-1,1E0,1E0,-3.5165328E-1,3.75E-1,7.75707E-1,1E0,-9.006819E-1,-5.5365104E-2,4.344618E-1,6.504065E-2,2.5E-1,1.6383966E0,5E-1,5E-1,-6.4971805E-2,-3.2099493E-2,1.4673416E-3,4.7687422E-2,-6.825237E-2,-5.073443E-2,-6.547236E-2,-3.0033126E-2,4.656835E-2,7.479418E-2,1.3363424E-1,1.8595517E-1,-1.5615569E-2,5.180029E-2,5.8140613E-2,1.9598584E-1],"split_indices":[5,1,1,5,2,5,7,5,3,6,7,2,5,2,2,0,0,0,0,0,0,0,0,0,0,0,0,0,0,0,0],"split_type":[0,0,0,0,0,0,0,0,0,0,0,0,0,0,0,0,0,0,0,0,0,0,0,0,0,0,0,0,0,0,0],"sum_hessian":[2.37E2,1.6E2,7.7E1,7.1E1,8.9E1,3.4E1,4.3E1,2.9E1,4.2E1,6.9E1,2E1,1E1,2.4E1,3.1E1,1.2E1,1.9E1,1E1,1.8E1,2.4E1,4.9E1,2E1,5E0,1.5E1,4E0,6E0,1.6E1,8E0,2E1,1.1E1,7E0,5E0],"tree_param":{"num_deleted":"0","num_feature":"9","num_nodes":"31","size_leaf_vector":"1"}},{"base_weights":[2.550647E-2,-6.9480985E-1,2.3169188E0,1.16228424E-1,-1.331328E0,3.804939E0,1.3859967E0,-1.4077522E0,8.005639E-1,-1.4582063E0,-2.2026157E-1,3.4342563E0,1.7605057E-1,6.013496E-1,3.4838123E0,-5.992523E-2,-3.6629476E-2,9.22034E-4,4.7380153E-2,-5.807618E-2,-3.2620862E-2,-4.1497864E-2,4.9031954E-2,1.0034231E-1,1.6089584E-1,-9.57157E-3,6.35396E-2,7.5672306E-2,1.8860084E-1],"categories":[],"categories_nodes":[],"categories_segments":[],"categories_sizes":[],"default_left":[0,0,0,0,0,0,0,0,0,0,0,0,0,0,0,0,0,0,0,0,0,0,0,0,0,0,0,0,0],"id":4,"left_children":[1,3,5,7,9,11,13,15,17,19,21,23,-1,25,27,-1,-1,-1,-1,-1,-1,-1,-1,-1,-1,-1,-1,-1,-1],"loss_changes":[4.145434E2,9.866986E1,8.275165E1,8.7747536E1,1.5042679E1,5.607849E0,6.0802826E1,1.7300758E0,1.9785358E1,3.4460754E0,1.450316E1,9.188873E0,0E0,2.4529396E1,2.117453E1,0E0,0E0,0E0,0E0,0E0,0E0,0E0,0E0,0E0,0E0,0E0,0E0,0E0,0E0],"parents":[2147483647,0,0,1,1,2,2,3,3,4,4,5,5,6,6,7,7,8,8,9,9,10,10,11,11,13,13,14,14],"right_children":[2,4,6,8,10,12,14,16,18,20,22,24,-1,26,28,-1,-1,-1,-1,-1,-1,-1,-1,-1,-1,-1,-1,-1,-1],"split_conditions":[7.75707E-1,1E0,1E0,-3.5165328E-1,4.5963594E-1,1.6383966E0,1E0,-9.006819E-1,7.317073E-2,6.25E-1,5E-1,5E-1,1.7605057E-1,5E-1,5E-1,-5.992523E-2,-3.6629476E-2,9.22034E-4,4.7380153E-2,-5.807618E-2,-3.2620862E-2,-4.1497864E-2,4.9031954E-2,1.0034231E-1,1.6089584E-1,-9.57157E-3,6.35396E-2,7.5672306E-2,1.8860084E-1],"split_indices":[5,1,1,5,5,5,7,5,7,2,2,2,0,2,2,0,0,0,0,0,0,0,0,0,0,0,0,0,0],"split_type":[0,0,0,0,0,0,0,0,0,0,0,0,0,0,0,0,0,0,0,0,0,0,0,0,0,0,0,0,0],"sum_hessian":[2.51E2,1.91E2,6E1,8.4E1,1.07E2,2.3E1,3.7E1,2.6E1,5.8E1,9.6E1,1.1E1,1.6E1,7E0,2.7E1,1E1,1.9E1,7E0,2.1E1,3.7E1,8.7E1,9E0,7E0,4E0,8E0,8E0,1.5E1,1.2E1,5E0,5E0],"tree_param":{"num_deleted":"0","num_feature":"9","num_nodes":"29","size_leaf_vector":"1"}},{"base_weights":[4.184853E-3,-6.5801346E-1,2.3812618E0,1.5025634E-1,-1.3288432E0,3.5697298E0,1.6184515E0,-8.0948335E-1,1.1101398E0,-1.539916E0,-7.654496E-1,3.0482662E0,1.7461155E-1,4.2997327E-1,2.7296288E0,-5.177179E-2,-5.799367E-3,1.8793227E-2,5.224426E-2,-7.13524E-2,-5.6450613E-2,-3.9100036E-2,1.7788822E-2,9.533608E-2,1.525638E-1,-9.525221E-3,5.9404664E-2,1.6119343E-1,3.9379768E-2],"categories":[],"categories_nodes":[],"categories_segments":[],"categories_sizes":[],"default_left":[0,0,0,0,0,0,0,0,0,0,0,0,0,0,0,0,0,0,0,0,0,0,0,0,0,0,0,0,0],"id":5,"left_children":[1,3,5,7,9,11,13,15,17,19,21,23,-1,25,27,-1,-1,-1,-1,-1,-1,-1,-1,-1,-1,-1,-1,-1,-1],"loss_changes":[3.9062665E2,1.05261314E2,4.852362E1,8.120242E1,1.2491409E1,9.872986E0,4.3536987E1,1.5767328E1,6.9258575E0,1.3291931E0,9.267256E0,6.5397186E0,0E0,1.2325314E1,4.2782684E1,0E0,0E0,0E0,0E0,0E0,0E0,0E0,0E0,0E0,0E0,0E0,0E0,0E0,0E0],"parents":[2147483647,0,0,1,1,2,2,3,3,4,4,5,5,6,6,7,7,8,8,9,9,10,10,11,11,13,13,14,14],"right_children":[2,4,6,8,10,12,14,16,18,20,22,24,-1,26,28,-1,-1,-1,-1,-1,-1,-1,-1,-1,-1,-1,-1,-1,-1],"split_conditions":[7.75707E-1,1E0,1E0,-1.4394331E-1,3.75E-1,1.6383966E0,5E-1,-5.739334E-1,1.936335E-1,6.504065E-2,2.9636008E-1,5E-1,1.7461155E-1,7.5609756E-1,1.5562319E0,-5.177179E-2,-5.799367E-3,1.8793227E-2,5.224426E-2,-7.13524E-2,-5.6450613E-2,-3.9100036E-2,1.7788822E-2,9.533608E-2,1.525638E-1,-9.525221E-3,5.9404664E-2,1.6119343E-1,3.9379768E-2],"split_indices":[5,1,1,5,2,5,2,5,5,7,3,2,0,7,3,0,0,0,0,0,0,0,0,0,0,0,0,0,0],"split_type":[0,0,0,0,0,0,0,0,0,0,0,0,0,0,0,0,0,0,0,0,0,0,0,0,0,0,0,0,0],"sum_hessian":[2.48E2,1.94E2,5.4E1,8.8E1,1.06E2,2.1E1,3.3E1,4.4E1,4.4E1,7.7E1,2.9E1,1.4E1,7E0,1.6E1,1.7E1,2.4E1,2E1,1.3E1,3.1E1,1.2E1,6.5E1,2.4E1,5E0,9E0,5E0,1E1,6E0,9E0,8E0],"tree_param":{"num_deleted":"0","num_feature":"9","num_nodes":"29","size_leaf_vector":"1"}},{"base_weights":[-3.624912E-2,-7.0272243E-1,2.11576E0,3.8763717E-2,-1.3304647E0,1.4865283E0,3.546193E0,-7.938899E-1,1.0248897E0,-1.4442366E0,-6.959897E-1,3.1068878E0,4.669636E-1,3.0539298E0,1.9340456E-1,-5.3231377E-2,-6.2785605E-3,3.0804101E-2,6.988991E-2,-6.1232883E-2,-4.3168116E-2,-4.2293575E-2,1.6399171E-2,1.071908E-1,1.478705E-1,-1.5274659E-2,5.689063E-2,1.5627305E-1,9.073589E-2],"categories":[],"categories_nodes":[],"categories_segments":[],"categories_sizes":[],"default_left":[0,0,0,0,0,0,0,0,0,0,0,0,0,0,0,0,0,0,0,0,0,0,0,0,0,0,0,0,0],"id":6,"left_children":[1,3,5,7,9,11,13,15,17,19,21,23,25,27,-1,-1,-1,-1,-1,-1,-1,-1,-1,-1,-1,-1,-1,-1,-1],"loss_changes":[3.401009E2,8.430699E1,5.001056E1,6.827063E1,6.972122E0,6.438408E1,1.1503662E1,1.6958342E1,6.5482864E0,3.9594116E0,7.010719E0,2.5904694E0,2.1377306E1,8.402557E0,0E0,0E0,0E0,0E0,0E0,0E0,0E0,0E0,0E0,0E0,0E0,0E0,0E0,0E0,0E0],"parents":[2147483647,0,0,1,1,2,2,3,3,4,4,5,5,6,6,7,7,8,8,9,9,10,10,11,11,12,12,13,13],"right_children":[2,4,6,8,10,12,14,16,18,20,22,24,26,28,-1,-1,-1,-1,-1,-1,-1,-1,-1,-1,-1,-1,-1,-1,-1],"split_conditions":[6.136244E-1,1E0,1E0,-1.4619996E-1,5E-1,1E0,6.25E-1,-5.739334E-1,3.75E-1,4.344618E-1,-3.0332744E-1,6.25E-1,3.75E-1,1E0,1.9340456E-1,-5.3231377E-2,-6.2785605E-3,3.0804101E-2,6.988991E-2,-6.1232883E-2,-4.3168116E-2,-4.2293575E-2,1.6399171E-2,1.071908E-1,1.478705E-1,-1.5274659E-2,5.689063E-2,1.5627305E-1,9.073589E-2],"split_indices":[5,1,7,5,2,1,2,5,2,6,4,2,2,1,0,0,0,0,0,0,0,0,0,0,0,0,0,0,0],"split_type":[0,0,0,0,0,0,0,0,0,0,0,0,0,0,0,0,0,0,0,0,0,0,0,0,0,0,0,0,0],"sum_hessian":[2.37E2,1.81E2,5.6E1,8.3E1,9.8E1,3.9E1,1.7E1,4.5E1,3.8E1,8.3E1,1.5E1,1.5E1,2.4E1,1.3E1,4E0,2.3E1,2.2E1,3E1,8E0,5.5E1,2.8E1,1.1E1,4E0,1.1E1,4E0,1.3E1,1.1E1,5E0,8E0],"tree_param":{"num_deleted":"0","num_feature":"9","num_nodes":"29","size_leaf_vector":"1"}},{"base_weights":[-5.0972287E-2,-6.569889E-1,2.130626E0,1.2954335E-1,-1.2485485E0,3.261838E0,1.3821987E0,-7.469021E-1,1.0959179E0,-1.4214306E0,-7.2053784E-1,2.9486945E0,1.607079E-1,4.5043352E-1,2.430025E0,-4.851195E-2,-5.4529076E-3,3.357433E-2,6.9009766E-2,-6.318164E-2,-4.9111508E-2,-4.1844178E-2,6.441872E-3,8.829199E-2,1.4274624E-1,-1.1556015E-2,6.958239E-2,1.472941E-1,4.427544E-2],"categories":[],"categories_nodes":[],"categories_segments":[],"categories_sizes":[],"default_left":[0,0,0,0,0,0,0,0,0,0,0,0,0,0,0,0,0,0,0,0,0,0,0,0,0,0,0,0,0],"id":7,"left_children":[1,3,5,7,9,11,13,15,17,19,21,23,-1,25,27,-1,-1,-1,-1,-1,-1,-1,-1,-1,-1,-1,-1,-1,-1],"loss_changes":[3.227557E2,8.8931786E1,4.453444E1,6.95753E1,9.847824E0,5.231201E0,3.1185383E1,1.3563589E1,5.8707657E0,2.3938599E0,9.042303E0,7.358597E0,0E0,1.7677292E1,2.6894753E1,0E0,0E0,0E0,0E0,0E0,0E0,0E0,0E0,0E0,0E0,0E0,0E0,0E0,0E0],"parents":[2147483647,0,0,1,1,2,2,3,3,4,4,5,5,6,6,7,7,8,8,9,9,10,10,11,11,13,13,14,14],"right_children":[2,4,6,8,10,12,14,16,18,20,22,24,-1,26,28,-1,-1,-1,-1,-1,-1,-1,-1,-1,-1,-1,-1,-1,-1],"split_conditions":[7.75707E-1,1E0,1E0,-1.4394331E-1,3.75E-1,1.6383966E0,5E-1,-5.739334E-1,3.75E-1,7.317073E-2,2.522569E-1,5E-1,1.607079E-1,1E0,1.5562319E0,-4.851195E-2,-5.4529076E-3,3.357433E-2,6.9009766E-2,-6.318164E-2,-4.9111508E-2,-4.1844178E-2,6.441872E-3,8.829199E-2,1.4274624E-1,-1.1556015E-2,6.958239E-2,1.472941E-1,4.427544E-2],"split_indices":[5,1,1,5,2,5,2,5,2,7,5,2,0,7,3,0,0,0,0,0,0,0,0,0,0,0,0,0,0],"split_type":[0,0,0,0,0,0,0,0,0,0,0,0,0,0,0,0,0,0,0,0,0,0,0,0,0,0,0,0,0],"sum_hessian":[2.44E2,1.91E2,5.3E1,8.2E1,1.09E2,2.1E1,3.2E1,4.3E1,3.9E1,8.2E1,2.7E1,1.6E1,5E0,1.7E1,1.5E1,2.3E1,2E1,3E1,9E0,3E1,5.2E1,1.9E1,8E0,9E0,7E0,1.1E1,6E0,7E0,8E0],"tree_param":{"num_deleted":"0","num_feature":"9","num_nodes":"29","size_leaf_vector":"1"}},{"base_weights":[-5.263371E-2,-5.8911884E-1,1.8951148E0,8.648752E-2,-1.1775831E0,3.1782544E0,9.4833475E-1,-1.1473291E0,6.938723E-1,-1.2935615E0,6.946515E-3,2.7915056E0,1.516473E-1,2.3091339E-1,2.0154262E0,-2.4153257E-2,-4.9980972E-2,5.499283E-3,4.542019E-2,-5.835687E-2,-4.1848034E-2,5.0296646E-2,-2.4937289E-2,8.9455135E-2,1.514864E-1,-2.395121E-2,4.9724143E-2,1.3318834E-1,3.58715E-2],"categories":[],"categories_nodes":[],"categories_segments":[],"categories_sizes":[],"default_left":[0,0,0,0,0,0,0,0,0,0,0,0,0,0,0,0,0,0,0,0,0,0,0,0,0,0,0,0,0],"id":8,"left_children":[1,3,5,7,9,11,13,15,17,19,21,23,-1,25,27,-1,-1,-1,-1,-1,-1,-1,-1,-1,-1,-1,-1,-1,-1],"loss_changes":[2.5196039E2,7.519447E1,6.2975464E1,6.6048645E1,1.3907486E1,5.8494263E0,2.2949759E1,2.3149414E0,1.6037678E1,4.1052856E0,7.904372E0,7.2015533E0,0E0,1.6658041E1,1.8798988E1,0E0,0E0,0E0,0E0,0E0,0E0,0E0,0E0,0E0,0E0,0E0,0E0,0E0,0E0],"parents":[2147483647,0,0,1,1,2,2,3,3,4,4,5,5,6,6,7,7,8,8,9,9,10,10,11,11,13,13,14,14],"right_children":[2,4,6,8,10,12,14,16,18,20,22,24,-1,26,28,-1,-1,-1,-1,-1,-1,-1,-1,-1,-1,-1,-1,-1,-1],"split_conditions":[7.75707E-1,1E0,1E0,-3.5165328E-1,6.25E-1,1.6383966E0,5E-1,6.780117E-2,1.936335E-1,8.130081E-2,7.5E-1,5E-1,1.516473E-1,1.6383966E0,1.5562319E0,-2.4153257E-2,-4.9980972E-2,5.499283E-3,4.542019E-2,-5.835687E-2,-4.1848034E-2,5.0296646E-2,-2.4937289E-2,8.9455135E-2,1.514864E-1,-2.395121E-2,4.9724143E-2,1.3318834E-1,3.58715E-2],"split_indices":[5,1,1,5,2,5,2,8,5,7,2,2,0,5,3,0,0,0,0,0,0,0,0,0,0,0,0,0,0],"split_type":[0,0,0,0,0,0,0,0,0,0,0,0,0,0,0,0,0,0,0,0,0,0,0,0,0,0,0,0,0],"sum_hessian":[2.41E2,1.89E2,5.2E1,8.8E1,1.01E2,2.2E1,3E1,2.9E1,5.9E1,9.2E1,9E0,1.5E1,7E0,1.8E1,1.2E1,7E0,2.2E1,2.8E1,3.1E1,4.2E1,5E1,3E0,6E0,1.1E1,4E0,1E1,8E0,5E0,7E0],"tree_param":{"num_deleted":"0","num_feature":"9","num_nodes":"29","size_leaf_vector":"1"}},{"base_weights":[-3.3058133E-2,-7.2658396E-1,1.32849E0,-1.0014272E-1,-1.2608296E0,2.469236E0,5.1094836E-1,-1.0498081E0,4.5420402E-1,-1.3978387E0,-1.0137163E0,1.4303449E0,3.0758257E0,-1.9711024E-1,1.6264178E0,-4.622637E-2,-1.7328542E-2,1.0315819E-3,3.5015352E-2,-5.562747E-2,-3.407803E-2,-5.5829372E-2,-3.0784776E-2,4.9563125E-2,6.9899485E-2,1.0142393E-1,1.5061411E-1,-3.0168716E-2,3.757096E-2,3.9243404E-2,1.4572237E-1],"categories":[],"categories_nodes":[],"categories_segments":[],"categories_sizes":[],"default_left":[0,0,0,0,0,0,0,0,0,0,0,0,0,0,0,0,0,0,0,0,0,0,0,0,0,0,0,0,0,0,0],"id":9,"left_children":[1,3,5,7,9,11,13,15,17,19,21,23,25,27,29,-1,-1,-1,-1,-1,-1,-1,-1,-1,-1,-1,-1,-1,-1,-1,-1],"loss_changes":[2.3524742E2,5.521277E1,7.8265335E1,4.0090588E1,2.8748474E0,2.1714157E1,3.8803585E1,2.6097775E0,9.472448E0,1.5405121E0,2.8638268E0,4.747486E-1,7.2058105E0,2.1076662E1,2.4643417E1,0E0,0E0,0E0,0E0,0E0,0E0,0E0,0E0,0E0,0E0,0E0,0E0,0E0,0E0,0E0,0E0],"parents":[2147483647,0,0,1,1,2,2,3,3,4,4,5,5,6,6,7,7,8,8,9,9,10,10,11,11,12,12,13,13,14,14],"right_children":[2,4,6,8,10,12,14,16,18,20,22,24,26,28,30,-1,-1,-1,-1,-1,-1,-1,-1,-1,-1,-1,-1,-1,-1,-1,-1],"split_conditions":[4.1644022E-1,1E0,1E0,-3.5165328E-1,2.5E-1,7.75707E-1,3.75E-1,-5.739334E-1,7.317073E-2,1E0,6.504065E-2,5E-1,1.6383966E0,1.6383966E0,1.6383966E0,-4.622637E-2,-1.7328542E-2,1.0315819E-3,3.5015352E-2,-5.562747E-2,-3.407803E-2,-5.5829372E-2,-3.0784776E-2,4.9563125E-2,6.9899485E-2,1.0142393E-1,1.5061411E-1,-3.0168716E-2,3.757096E-2,3.9243404E-2,1.4572237E-1],"split_indices":[5,1,1,5,2,5,2,5,7,7,7,2,5,5,5,0,0,0,0,0,0,0,0,0,0,0,0,0,0,0,0],"split_type":[0,0,0,0,0,0,0,0,0,0,0,0,0,0,0,0,0,0,0,0,0,0,0,0,0,0,0,0,0,0,0],"sum_hessian":[2.49E2,1.65E2,8.4E1,7.6E1,8.9E1,3.5E1,4.9E1,2.8E1,4.8E1,5.7E1,3.2E1,1.3E1,2.2E1,3E1,1.9E1,2.2E1,6E0,2.5E1,2.3E1,5.1E1,6E0,1E1,2.2E1,1E1,3E0,1.5E1,7E0,2E1,1E1,1.5E1,4E0],"tree_param":{"num_deleted":"0","num_feature":"9","num_nodes":"31","size_leaf_vector":"1"}},{"base_weights":[2.9375065E-2,-5.7416546E-1,1.8962982E0,-9.341024E-1,1.625334E-1,1.5117711E0,2.9252458E0,-1.1828821E0,-7.0237976E-1,-2.0419264E-2,1.2739093E0,1.0161545E0,2.3485503E0,2.563036E0,1.724292E-1,-4.8030905E-2,-2.2219276E-2,-3.539906E-2,-2.001263E-2,4.413742E-2,-2.5438871E-3,2.0411983E-2,5.638044E-2,2.0321205E-2,4.9981866E-2,1.18330956E-1,4.804272E-2,1.10343866E-1,8.767532E-2],"categories":[],"categories_nodes":[],"categories_segments":[],"categories_sizes":[],"default_left":[0,0,0,0,0,0,0,0,0,0,0,0,0,0,0,0,0,0,0,0,0,0,0,0,0,0,0,0,0],"id":10,"left_children":[1,3,5,7,9,11,13,15,17,19,21,23,25,27,-1,-1,-1,-1,-1,-1,-1,-1,-1,-1,-1,-1,-1,-1,-1],"loss_changes":[2.908837E2,5.1749687E1,2.4567322E1,7.465393E0,1.3050473E1,1.8881134E1,8.877609E0,2.7261581E0,2.6652985E0,2.9745793E0,1.2625704E0,4.0289917E0,1.3587814E1,6.7181396E-1,0E0,0E0,0E0,0E0,0E0,0E0,0E0,0E0,0E0,0E0,0E0,0E0,0E0,0E0,0E0],"parents":[2147483647,0,0,1,1,2,2,3,3,4,4,5,5,6,6,7,7,8,8,9,9,10,10,11,11,12,12,13,13],"right_children":[2,4,6,8,10,12,14,16,18,20,22,24,26,28,-1,-1,-1,-1,-1,-1,-1,-1,-1,-1,-1,-1,-1,-1,-1],"split_conditions":[6.136244E-1,3.1063905E-2,1E0,-5.739334E-1,5E-1,5E-1,6.25E-1,6.25E-1,1.25E-1,-2.8795683E-1,2.4516454E-1,5.9420437E-1,5.9420437E-1,1.25E-1,1.724292E-1,-4.8030905E-2,-2.2219276E-2,-3.539906E-2,-2.001263E-2,4.413742E-2,-2.5438871E-3,2.0411983E-2,5.638044E-2,2.0321205E-2,4.9981866E-2,1.18330956E-1,4.804272E-2,1.10343866E-1,8.767532E-2],"split_indices":[5,5,7,5,2,2,2,2,2,4,3,3,3,2,0,0,0,0,0,0,0,0,0,0,0,0,0,0,0],"split_type":[0,0,0,0,0,0,0,0,0,0,0,0,0,0,0,0,0,0,0,0,0,0,0,0,0,0,0,0,0],"sum_hessian":[2.58E2,1.95E2,6.3E1,1.31E2,6.4E1,4.6E1,1.7E1,6.3E1,6.8E1,5.5E1,9E0,2.9E1,1.7E1,1.4E1,3E0,5.6E1,7E0,3E1,3.8E1,2E0,5.3E1,2E0,7E0,1.1E1,1.8E1,1E1,7E0,6E0,8E0],"tree_param":{"num_deleted":"0","num_feature":"9","num_nodes":"29","size_leaf_vector":"1"}},{"base_weights":[8.189941E-2,-5.0063795E-1,1.9321386E0,1.2452257E-1,-1.0591465E0,2.8187332E0,1.3950998E0,-6.346236E-1,8.8386256E-1,-1.222869E0,-1.9406314E-1,2.4925268E0,1.3729958E-1,3.277383E-1,2.654536E0,-4.4442292E-2,-5.7821334E-3,1.4447121E-2,4.4423003E-2,-5.7563543E-2,-4.3906163E-2,-2.9082803E-2,3.559263E-2,6.0374375E-2,1.0350717E-1,-9.839965E-3,6.0636587E-2,1.3410679E-1,4.5956086E-2],"categories":[],"categories_nodes":[],"categories_segments":[],"categories_sizes":[],"default_left":[0,0,0,0,0,0,0,0,0,0,0,0,0,0,0,0,0,0,0,0,0,0,0,0,0,0,0,0,0],"id":11,"left_children":[1,3,5,7,9,11,13,15,17,19,21,23,-1,25,27,-1,-1,-1,-1,-1,-1,-1,-1,-1,-1,-1,-1,-1,-1],"loss_changes":[2.523815E2,6.21998E1,2.634845E1,4.8506245E1,1.3282806E1,4.5872345E0,4.7032524E1,1.07092705E1,5.8723564E0,1.4891968E0,9.664651E0,2.5985718E0,0E0,1.4103719E1,1.9570541E1,0E0,0E0,0E0,0E0,0E0,0E0,0E0,0E0,0E0,0E0,0E0,0E0,0E0,0E0],"parents":[2147483647,0,0,1,1,2,2,3,3,4,4,5,5,6,6,7,7,8,8,9,9,10,10,11,11,13,13,14,14],"right_children":[2,4,6,8,10,12,14,16,18,20,22,24,-1,26,28,-1,-1,-1,-1,-1,-1,-1,-1,-1,-1,-1,-1,-1,-1],"split_conditions":[7.75707E-1,1E0,1E0,-1.4394331E-1,5E-1,1.6383966E0,5E-1,-4.221592E-1,1.936335E-1,6.504065E-2,-7.490255E-2,1.25E-1,1.3729958E-1,1E0,1.5562319E0,-4.4442292E-2,-5.7821334E-3,1.4447121E-2,4.4423003E-2,-5.7563543E-2,-4.3906163E-2,-2.9082803E-2,3.559263E-2,6.0374375E-2,1.0350717E-1,-9.839965E-3,6.0636587E-2,1.3410679E-1,4.5956086E-2],"split_indices":[5,1,1,5,2,5,2,3,5,7,3,2,0,7,3,0,0,0,0,0,0,0,0,0,0,0,0,0,0],"split_type":[0,0,0,0,0,0,0,0,0,0,0,0,0,0,0,0,0,0,0,0,0,0,0,0,0,0,0,0,0],"sum_hessian":[2.34E2,1.78E2,5.6E1,8.4E1,9.4E1,2.1E1,3.5E1,4.2E1,4.2E1,7.9E1,1.5E1,1.5E1,6E0,1.9E1,1.6E1,2E1,2.2E1,1.5E1,2.7E1,1.6E1,6.3E1,1E1,5E0,3E0,1.2E1,1.3E1,6E0,1E1,6E0],"tree_param":{"num_deleted":"0","num_feature":"9","num_nodes":"29","size_leaf_vector":"1"}},{"base_weights":[-3.2929287E-3,-5.430902E-1,1.8686324E0,8.929259E-2,-1.0402861E0,2.8965602E0,1.0123872E0,-5.0490266E-1,1.0471877E0,-1.1831411E0,-6.1450946E-1,2.616347E0,1.3534196E-1,2.8169394E-1,2.387326E0,-3.8349047E-2,-2.9799407E-3,2.8474396E-2,5.5707272E-2,-4.9685366E-2,-3.7680745E-2,-2.9602969E-2,2.283551E-2,8.2431555E-2,1.23880476E-1,-6.2290016E-3,3.4060556E-2,4.5588776E-2,1.3546753E-1],"categories":[],"categories_nodes":[],"categories_segments":[],"categories_sizes":[],"default_left":[0,0,0,0,0,0,0,0,0,0,0,0,0,0,0,0,0,0,0,0,0,0,0,0,0,0,0,0,0],"id":12,"left_children":[1,3,5,7,9,11,13,15,17,19,21,23,-1,25,27,-1,-1,-1,-1,-1,-1,-1,-1,-1,-1,-1,-1,-1,-1],"loss_changes":[2.3959949E2,5.7897766E1,4.6437424E1,4.6189938E1,6.187477E0,3.5941467E0,2.9113327E1,1.063562E1,3.7395668E0,1.6491394E0,5.0972595E0,4.3182983E0,0E0,5.1927977E0,1.3546066E1,0E0,0E0,0E0,0E0,0E0,0E0,0E0,0E0,0E0,0E0,0E0,0E0,0E0,0E0],"parents":[2147483647,0,0,1,1,2,2,3,3,4,4,5,5,6,6,7,7,8,8,9,9,10,10,11,11,13,13,14,14],"right_children":[2,4,6,8,10,12,14,16,18,20,22,24,-1,26,28,-1,-1,-1,-1,-1,-1,-1,-1,-1,-1,-1,-1,-1,-1],"split_conditions":[7.75707E-1,1E0,1E0,3.1063905E-2,3.75E-1,1.6383966E0,1E0,-4.221592E-1,2.5E-1,1.0569106E-1,2.9636008E-1,6.25E-1,1.3534196E-1,3.75E-1,3.75E-1,-3.8349047E-2,-2.9799407E-3,2.8474396E-2,5.5707272E-2,-4.9685366E-2,-3.7680745E-2,-2.9602969E-2,2.283551E-2,8.2431555E-2,1.23880476E-1,-6.2290016E-3,3.4060556E-2,4.5588776E-2,1.3546753E-1],"split_indices":[5,1,1,5,2,5,7,3,2,7,3,2,0,2,2,0,0,0,0,0,0,0,0,0,0,0,0,0,0],"split_type":[0,0,0,0,0,0,0,0,0,0,0,0,0,0,0,0,0,0,0,0,0,0,0,0,0,0,0,0,0],"sum_hessian":[2.37E2,1.84E2,5.3E1,8.1E1,1.03E2,2.4E1,2.9E1,5E1,3.1E1,7.7E1,2.6E1,1.7E1,7E0,1.9E1,1E1,2.3E1,2.7E1,1.8E1,1.3E1,4.8E1,2.9E1,2.3E1,3E0,1E1,7E0,1.1E1,8E0,5E0,5E0],"tree_param":{"num_deleted":"0","num_feature":"9","num_nodes":"29","size_leaf_vector":"1"}},{"base_weights":[-1.3376299E-3,-5.572898E-1,1.7318944E0,5.068062E-2,-1.0073137E0,2.5801163E0,1.0846577E0,-5.135004E-1,9.8406017E-1,-1.1059815E0,-3.694531E-1,2.3298452E0,1.2738523E-1,1.3261853E-1,2.3683658E0,-3.902747E-2,-3.116552E-3,3.0831436E-2,5.827663E-2,-4.677216E-2,-3.3984166E-2,-2.9875403E-2,4.280815E-2,5.3902183E-2,1.0481491E-1,-1.0594839E-2,4.8587885E-2,1.3759162E-1,2.6739942E-2],"categories":[],"categories_nodes":[],"categories_segments":[],"categories_sizes":[],"default_left":[0,0,0,0,0,0,0,0,0,0,0,0,0,0,0,0,0,0,0,0,0,0,0,0,0,0,0,0,0],"id":13,"left_children":[1,3,5,7,9,11,13,15,17,19,21,23,-1,25,27,-1,-1,-1,-1,-1,-1,-1,-1,-1,-1,-1,-1,-1,-1],"loss_changes":[2.3041513E2,4.956092E1,3.1621292E1,4.062857E1,6.4959946E0,4.083786E0,4.0352318E1,1.0519639E1,2.660942E0,2.1901703E0,8.699587E0,6.89843E0,0E0,8.943915E0,2.868155E1,0E0,0E0,0E0,0E0,0E0,0E0,0E0,0E0,0E0,0E0,0E0,0E0,0E0,0E0],"parents":[2147483647,0,0,1,1,2,2,3,3,4,4,5,5,6,6,7,7,8,8,9,9,10,10,11,11,13,13,14,14],"right_children":[2,4,6,8,10,12,14,16,18,20,22,24,-1,26,28,-1,-1,-1,-1,-1,-1,-1,-1,-1,-1,-1,-1,-1,-1],"split_conditions":[6.136244E-1,1E0,1E0,1.17135905E-1,4.1644022E-1,1.6383966E0,5E-1,-5.739334E-1,3.75E-1,2.5E-1,5E-1,2.5E-1,1.2738523E-1,1E0,1.5562319E0,-3.902747E-2,-3.116552E-3,3.0831436E-2,5.827663E-2,-4.677216E-2,-3.3984166E-2,-2.9875403E-2,4.280815E-2,5.3902183E-2,1.0481491E-1,-1.0594839E-2,4.8587885E-2,1.3759162E-1,2.6739942E-2],"split_indices":[5,1,1,3,5,5,2,5,2,2,2,2,0,7,3,0,0,0,0,0,0,0,0,0,0,0,0,0,0],"split_type":[0,0,0,0,0,0,0,0,0,0,0,0,0,0,0,0,0,0,0,0,0,0,0,0,0,0,0,0,0],"sum_hessian":[2.39E2,1.81E2,5.8E1,7.7E1,1.04E2,2.5E1,3.3E1,4.8E1,2.9E1,9E1,1.4E1,1.9E1,6E0,1.9E1,1.4E1,2.2E1,2.6E1,2.2E1,7E0,5.8E1,3.2E1,1.1E1,3E0,6E0,1.3E1,1.4E1,5E0,8E0,6E0],"tree_param":{"num_deleted":"0","num_feature":"9","num_nodes":"29","size_leaf_vector":"1"}},{"base_weights":[-5.314388E-2,-5.379741E-1,1.5123001E0,1.6375115E-2,-9.391202E-1,2.5015843E0,8.18422E-1,-6.312134E-1,6.993275E-1,-1.1070963E0,-4.9670613E-1,2.174817E0,1.294883E-1,1.5676658E-1,2.56603E0,-3.6725476E-2,-5.8787917E-3,1.3915768E-3,3.1591073E-2,-4.6344094E-2,-3.3417463E-2,-3.3701506E-2,1.3669038E-2,7.294104E-2,1.27566E-1,-1.50824385E-2,3.0890748E-2,5.2574325E-2,1.3307491E-1],"categories":[],"categories_nodes":[],"categories_segments":[],"categories_sizes":[],"default_left":[0,0,0,0,0,0,0,0,0,0,0,0,0,0,0,0,0,0,0,0,0,0,0,0,0,0,0,0,0],"id":14,"left_children":[1,3,5,7,9,11,13,15,17,19,21,23,-1,25,27,-1,-1,-1,-1,-1,-1,-1,-1,-1,-1,-1,-1,-1,-1],"loss_changes":[1.7997137E2,4.028227E1,3.8288574E1,3.367617E1,7.7423706E0,6.072983E0,3.816545E1,6.1230116E0,3.1137104E0,1.7598801E0,9.599731E0,4.744934E0,0E0,8.679113E0,9.473408E0,0E0,0E0,0E0,0E0,0E0,0E0,0E0,0E0,0E0,0E0,0E0,0E0,0E0,0E0],"parents":[2147483647,0,0,1,1,2,2,3,3,4,4,5,5,6,6,7,7,8,8,9,9,10,10,11,11,13,13,14,14],"right_children":[2,4,6,8,10,12,14,16,18,20,22,24,-1,26,28,-1,-1,-1,-1,-1,-1,-1,-1,-1,-1,-1,-1,-1,-1],"split_conditions":[7.75707E-1,1E0,1E0,-1.4619996E-1,3.75E-1,1.6383966E0,1E0,-5.739334E-1,-3.0332744E-1,4.344618E-1,3.1063905E-2,7.5E-1,1.294883E-1,3.75E-1,5E-1,-3.6725476E-2,-5.8787917E-3,1.3915768E-3,3.1591073E-2,-4.6344094E-2,-3.3417463E-2,-3.3701506E-2,1.3669038E-2,7.294104E-2,1.27566E-1,-1.50824385E-2,3.0890748E-2,5.2574325E-2,1.3307491E-1],"split_indices":[5,1,1,5,2,5,7,5,4,6,5,2,0,2,2,0,0,0,0,0,0,0,0,0,0,0,0,0,0],"split_type":[0,0,0,0,0,0,0,0,0,0,0,0,0,0,0,0,0,0,0,0,0,0,0,0,0,0,0,0,0],"sum_hessian":[2.37E2,1.81E2,5.6E1,7.6E1,1.05E2,2.3E1,3.3E1,3.9E1,3.7E1,7.6E1,2.9E1,1.7E1,6E0,2.4E1,9E0,2.3E1,1.6E1,6E0,3.1E1,5.2E1,2.4E1,2E1,9E0,1.4E1,3E0,1.3E1,1.1E1,4E0,5E0],"tree_param":{"num_deleted":"0","num_feature":"9","num_nodes":"29","size_leaf_vector":"1"}},{"base_weights":[3.9741796E-2,-4.7864816E-1,1.7350384E0,-7.785461E-1,1.21075705E-1,8.4840286E-1,2.1289396E0,-9.4050854E-1,-4.9735093E-1,-3.6568988E-2,1.3055243E0,1.5772061E0,1.9782202E-2,1.5320107E0,3.261122E0,-3.9451785E-2,-2.3599194E-2,-2.4160795E-2,-1.5355382E-2,4.268469E-2,-3.1953498E-3,2.9850084E-2,5.7248503E-2,4.1922733E-2,1.2055507E-1,-1.7910704E-2,5.577088E-2,3.891051E-2,7.630697E-2,1.15157545E-1,1.4337656E-1],"categories":[],"categories_nodes":[],"categories_segments":[],"categories_sizes":[],"default_left":[0,0,0,0,0,0,0,0,0,0,0,0,0,0,0,0,0,0,0,0,0,0,0,0,0,0,0,0,0,0,0],"id":15,"left_children":[1,3,5,7,9,11,13,15,17,19,21,23,25,27,29,-1,-1,-1,-1,-1,-1,-1,-1,-1,-1,-1,-1,-1,-1,-1,-1],"loss_changes":[2.0666562E2,3.240454E1,1.905539E1,5.4110336E0,1.1241351E1,1.02796755E1,2.5295746E1,2.1850433E0,5.324755E-1,2.8696268E0,5.9302616E-1,6.554352E0,5.7408767E0,5.793255E0,6.7626953E-1,0E0,0E0,0E0,0E0,0E0,0E0,0E0,0E0,0E0,0E0,0E0,0E0,0E0,0E0,0E0,0E0],"parents":[2147483647,0,0,1,1,2,2,3,3,4,4,5,5,6,6,7,7,8,8,9,9,10,10,11,11,12,12,13,13,14,14],"right_children":[2,4,6,8,10,12,14,16,18,20,22,24,26,28,30,-1,-1,-1,-1,-1,-1,-1,-1,-1,-1,-1,-1,-1,-1,-1,-1],"split_conditions":[7.75707E-1,3.1063905E-2,2.2088565E-1,-3.110465E-1,5E-1,1E0,6.25E-1,3.75E-1,1.25E-1,-2.8795683E-1,2.4516454E-1,6.25E-1,2.3287117E0,1.510532E0,5.9420437E-1,-3.9451785E-2,-2.3599194E-2,-2.4160795E-2,-1.5355382E-2,4.268469E-2,-3.1953498E-3,2.9850084E-2,5.7248503E-2,4.1922733E-2,1.2055507E-1,-1.7910704E-2,5.577088E-2,3.891051E-2,7.630697E-2,1.15157545E-1,1.4337656E-1],"split_indices":[5,5,8,3,2,0,2,2,2,4,3,2,3,3,3,0,0,0,0,0,0,0,0,0,0,0,0,0,0,0,0],"split_type":[0,0,0,0,0,0,0,0,0,0,0,0,0,0,0,0,0,0,0,0,0,0,0,0,0,0,0,0,0,0,0],"sum_hessian":[2.35E2,1.8E2,5.5E1,1.2E2,6E1,1.7E1,3.8E1,7.6E1,4.4E1,5.3E1,7E0,9E0,8E0,2.5E1,1.3E1,5.9E1,1.7E1,1.8E1,2.6E1,2E0,5.1E1,2E0,5E0,7E0,2E0,6E0,2E0,1.2E1,1.3E1,9E0,4E0],"tree_param":{"num_deleted":"0","num_feature":"9","num_nodes":"31","size_leaf_vector":"1"}},{"base_weights":[-2.937406E-3,-5.6759256E-1,1.140475E0,-8.5032135E-1,-3.120606E-1,7.59242E-1,2.200664E0,-9.7299194E-1,-3.7253737E-1,-3.6615437E-1,5.0048107E-1,4.8315197E-1,1.3870195E0,1.8326844E0,1.3799267E-1,-4.7663923E-2,-3.4068093E-2,-2.0794494E-2,-4.1636145E-3,-2.1677576E-2,-8.939765E-3,2.6734801E-2,1.3343112E-2,2.544276E-2,1.1733097E-2,2.733523E-2,9.90866E-2,3.212617E-2,7.850948E-2],"categories":[],"categories_nodes":[],"categories_segments":[],"categories_sizes":[],"default_left":[0,0,0,0,0,0,0,0,0,0,0,0,0,0,0,0,0,0,0,0,0,0,0,0,0,0,0,0,0],"id":16,"left_children":[1,3,5,7,9,11,13,15,17,19,21,23,25,27,-1,-1,-1,-1,-1,-1,-1,-1,-1,-1,-1,-1,-1,-1,-1],"loss_changes":[1.4857724E2,1.1092609E1,3.057814E1,4.234314E0,3.5739822E0,9.639378E0,9.858299E0,1.1830101E0,6.665516E-1,1.9998655E0,1.17789745E-1,1.2259436E0,1.3641014E1,3.365715E0,0E0,0E0,0E0,0E0,0E0,0E0,0E0,0E0,0E0,0E0,0E0,0E0,0E0,0E0,0E0],"parents":[2147483647,0,0,1,1,2,2,3,3,4,4,5,5,6,6,7,7,8,8,9,9,10,10,11,11,12,12,13,13],"right_children":[2,4,6,8,10,12,14,16,18,20,22,24,26,28,-1,-1,-1,-1,-1,-1,-1,-1,-1,-1,-1,-1,-1,-1,-1],"split_conditions":[4.1759855E-1,-3.110465E-1,1.6383966E0,3.75E-1,5E-1,7.0773566E-1,6.25E-1,-1.3079655E0,6.25E-1,1.25E-1,-2.1128197E-1,1E0,6.25E-1,1.5097865E-1,1.3799267E-1,-4.7663923E-2,-3.4068093E-2,-2.0794494E-2,-4.1636145E-3,-2.1677576E-2,-8.939765E-3,2.6734801E-2,1.3343112E-2,2.544276E-2,1.1733097E-2,2.733523E-2,9.90866E-2,3.212617E-2,7.850948E-2],"split_indices":[5,3,5,2,2,8,2,5,2,2,4,0,2,8,0,0,0,0,0,0,0,0,0,0,0,0,0,0,0],"split_type":[0,0,0,0,0,0,0,0,0,0,0,0,0,0,0,0,0,0,0,0,0,0,0,0,0,0,0,0,0],"sum_hessian":[2.3E2,1.54E2,7.6E1,7.3E1,8.1E1,5.6E1,2E1,5.8E1,1.5E1,7.6E1,5E0,3.9E1,1.7E1,1.6E1,4E0,1.3E1,4.5E1,9E0,6E0,3E1,4.6E1,2E0,3E0,1.9E1,2E1,1.1E1,6E0,3E0,1.3E1],"tree_param":{"num_deleted":"0","num_feature":"9","num_nodes":"29","size_leaf_vector":"1"}},{"base_weights":[-2.71228E-2,-5.2660686E-1,1.0994376E0,1.3529434E-3,-9.357911E-1,1.952934E0,5.277172E-1,-7.975356E-1,4.283839E-1,-4.7603905E-2,-8.325556E-1,1.0981286E0,2.351395E0,-1.725345E-1,1.6624429E0,-3.9589472E-2,-1.1982431E-2,4.5902943E-3,3.0993968E-2,-3.6185186E-2,-2.2120185E-2,2.758265E-2,5.2795213E-2,8.0515474E-2,1.143884E-1,-2.6574543E-2,2.5275335E-2,3.3911716E-2,1.0079332E-1],"categories":[],"categories_nodes":[],"categories_segments":[],"categories_sizes":[],"default_left":[0,0,0,0,0,0,0,0,0,0,0,0,0,0,0,0,0,0,0,0,0,0,0,0,0,0,0,0,0],"id":17,"left_children":[1,3,5,7,9,11,13,15,17,-1,19,21,23,25,27,-1,-1,-1,-1,-1,-1,-1,-1,-1,-1,-1,-1,-1,-1],"loss_changes":[1.2836618E2,3.4164337E1,3.4077003E1,2.3581268E1,2.7418594E0,9.320465E0,3.347444E1,2.7324715E0,5.294427E0,0E0,1.8817139E0,8.616581E-1,2.4608917E0,1.1401955E1,1.1921471E1,0E0,0E0,0E0,0E0,0E0,0E0,0E0,0E0,0E0,0E0,0E0,0E0,0E0,0E0],"parents":[2147483647,0,0,1,1,2,2,3,3,4,4,5,5,6,6,7,7,8,8,10,10,11,11,12,12,13,13,14,14],"right_children":[2,4,6,8,10,12,14,16,18,-1,20,22,24,26,28,-1,-1,-1,-1,-1,-1,-1,-1,-1,-1,-1,-1,-1,-1],"split_conditions":[4.5963594E-1,1E0,1E0,-3.5165328E-1,6.504065E-2,7.75707E-1,5E-1,-9.006819E-1,1.17135905E-1,-4.7603905E-2,2.5E-1,2.5E-1,1.6383966E0,1.6383966E0,1.8699187E-1,-3.9589472E-2,-1.1982431E-2,4.5902943E-3,3.0993968E-2,-3.6185186E-2,-2.2120185E-2,2.758265E-2,5.2795213E-2,8.0515474E-2,1.143884E-1,-2.6574543E-2,2.5275335E-2,3.3911716E-2,1.0079332E-1],"split_indices":[5,1,1,5,7,5,2,5,3,0,2,2,5,5,7,0,0,0,0,0,0,0,0,0,0,0,0,0,0],"split_type":[0,0,0,0,0,0,0,0,0,0,0,0,0,0,0,0,0,0,0,0,0,0,0,0,0,0,0,0,0],"sum_hessian":[2.28E2,1.58E2,7E1,6.9E1,8.9E1,2.8E1,4.2E1,2.4E1,4.5E1,2.2E1,6.7E1,9E0,1.9E1,2.6E1,1.6E1,1.6E1,8E0,2.5E1,2E1,4.6E1,2.1E1,4E0,5E0,1.4E1,5E0,1.6E1,1E1,9E0,7E0],"tree_param":{"num_deleted":"0","num_feature":"9","num_nodes":"29","size_leaf_vector":"1"}},{"base_weights":[-8.863317E-2,-4.8618913E-1,1.2143216E0,-7.607299E-1,-1.1843269E-1,8.108106E-1,2.155494E0,-4.415733E-2,-6.7443234E-1,-2.560264E-1,9.587119E-1,1.4207013E-1,1.2098509E0,2.8419707E0,-8.1980646E-2,-2.643055E-2,2.1701958E-3,-1.7914742E-2,-4.4530323E-3,1.3009799E-2,4.805272E-2,-1.1656611E-3,3.1438753E-2,3.2226346E-2,5.697342E-2,9.851727E-2,1.2902609E-1,1.8887429E-2,-2.535869E-2],"categories":[],"categories_nodes":[],"categories_segments":[],"categories_sizes":[],"default_left":[0,0,0,0,0,0,0,0,0,0,0,0,0,0,0,0,0,0,0,0,0,0,0,0,0,0,0,0,0],"id":18,"left_children":[1,3,5,7,9,11,13,-1,15,17,19,21,23,25,27,-1,-1,-1,-1,-1,-1,-1,-1,-1,-1,-1,-1,-1,-1],"loss_changes":[1.2645722E2,1.8866165E1,2.1500359E1,3.5622673E0,1.1872532E1,1.0657978E1,2.6283081E1,0E0,1.1234207E0,2.0958004E0,1.618331E0,1.7854352E0,2.454708E0,1.1286087E0,1.390316E0,0E0,0E0,0E0,0E0,0E0,0E0,0E0,0E0,0E0,0E0,0E0,0E0,0E0,0E0],"parents":[2147483647,0,0,1,1,2,2,3,3,4,4,5,5,6,6,8,8,9,9,10,10,11,11,12,12,13,13,14,14],"right_children":[2,4,6,8,10,12,14,-1,16,18,20,22,24,26,28,-1,-1,-1,-1,-1,-1,-1,-1,-1,-1,-1,-1,-1,-1],"split_conditions":[7.75707E-1,-7.490255E-2,6.25E-1,-1.1074535E0,5E-1,1.510532E0,1.5562319E0,-4.415733E-2,6.445568E-2,1.25E-1,2.4516454E-1,3.75E-1,1.6383966E0,5.9420437E-1,1E0,-2.643055E-2,2.1701958E-3,-1.7914742E-2,-4.4530323E-3,1.3009799E-2,4.805272E-2,-1.1656611E-3,3.1438753E-2,3.2226346E-2,5.697342E-2,9.851727E-2,1.2902609E-1,1.8887429E-2,-2.535869E-2],"split_indices":[5,3,2,5,2,3,3,0,4,2,3,2,5,3,2,0,0,0,0,0,0,0,0,0,0,0,0,0,0],"split_type":[0,0,0,0,0,0,0,0,0,0,0,0,0,0,0,0,0,0,0,0,0,0,0,0,0,0,0,0,0],"sum_hessian":[2.44E2,1.87E2,5.7E1,1.07E2,8E1,4E1,1.7E1,1.9E1,8.8E1,7.1E1,9E0,1.5E1,2.5E1,1.3E1,4E0,8.6E1,2E0,2.8E1,4.3E1,3E0,6E0,1.2E1,3E0,1.1E1,1.4E1,9E0,4E0,2E0,2E0],"tree_param":{"num_deleted":"0","num_feature":"9","num_nodes":"29","size_leaf_vector":"1"}},{"base_weights":[8.146789E-2,-3.7061536E-1,1.4444808E0,1.7694034E-1,-8.38282E-1,2.1892405E0,8.9296776E-1,-7.240494E-1,5.7281446E-1,-9.104319E-1,-4.1513667E-2,1.9009943E0,1.10881835E-1,9.837345E-3,1.7714164E0,-4.2592023E-2,-2.0460013E-2,8.644943E-3,3.552653E-2,-3.728018E-2,-2.1461833E-2,-1.8984457E-2,4.91641E-2,5.8926668E-2,9.330123E-2,-2.099041E-2,3.089566E-2,1.0767068E-1,2.2085384E-2],"categories":[],"categories_nodes":[],"categories_segments":[],"categories_sizes":[],"default_left":[0,0,0,0,0,0,0,0,0,0,0,0,0,0,0,0,0,0,0,0,0,0,0,0,0,0,0,0,0],"id":19,"left_children":[1,3,5,7,9,11,13,15,17,19,21,23,-1,25,27,-1,-1,-1,-1,-1,-1,-1,-1,-1,-1,-1,-1,-1,-1],"loss_changes":[1.461377E2,4.562081E1,2.4072815E1,2.9299488E1,5.503998E0,4.678108E0,2.6400002E1,1.7768688E0,7.024702E0,1.9369736E0,4.9117756E0,3.1735E0,0E0,7.658954E0,2.1142704E1,0E0,0E0,0E0,0E0,0E0,0E0,0E0,0E0,0E0,0E0,0E0,0E0,0E0,0E0],"parents":[2147483647,0,0,1,1,2,2,3,3,4,4,5,5,6,6,7,7,8,8,9,9,10,10,11,11,13,13,14,14],"right_children":[2,4,6,8,10,12,14,16,18,20,22,24,-1,26,28,-1,-1,-1,-1,-1,-1,-1,-1,-1,-1,-1,-1,-1,-1],"split_conditions":[7.75707E-1,1E0,1E0,-3.5165328E-1,6.25E-1,1.6383966E0,3.75E-1,-1.1074535E0,1.936335E-1,4.1759855E-1,-1.3038661E0,5E-1,1.10881835E-1,7.5609756E-1,1.5562319E0,-4.2592023E-2,-2.0460013E-2,8.644943E-3,3.552653E-2,-3.728018E-2,-2.1461833E-2,-1.8984457E-2,4.91641E-2,5.8926668E-2,9.330123E-2,-2.099041E-2,3.089566E-2,1.0767068E-1,2.2085384E-2],"split_indices":[5,1,1,5,2,5,2,5,5,5,3,2,0,7,3,0,0,0,0,0,0,0,0,0,0,0,0,0,0],"split_type":[0,0,0,0,0,0,0,0,0,0,0,0,0,0,0,0,0,0,0,0,0,0,0,0,0,0,0,0,0],"sum_hessian":[2.37E2,1.78E2,5.9E1,8.2E1,9.6E1,2.5E1,3.4E1,2.5E1,5.7E1,8.8E1,8E0,1.8E1,7E0,1.7E1,1.7E1,8E0,1.7E1,2.9E1,2.8E1,7.4E1,1.4E1,6E0,2E0,1.1E1,7E0,1E1,7E0,9E0,8E0],"tree_param":{"num_deleted":"0","num_feature":"9","num_nodes":"29","size_leaf_vector":"1"}},{"base_weights":[4.5731706E-3,-3.603622E-1,1.2445333E0,1.1984113E-1,-7.9641044E-1,7.9757476E-1,2.1556451E0,-4.397733E-1,6.923462E-1,-8.7505394E-1,-1.6089482E-2,1.8416623E0,1.576216E-1,1.8577336E0,1.2013796E-1,-3.321337E-2,-4.7319946E-3,1.3318866E-2,3.318077E-2,-3.6958158E-2,-2.4322964E-2,-1.4746052E-2,4.73494E-2,5.198467E-2,9.390021E-2,-1.8219747E-2,2.471876E-2,1.0776759E-1,4.9806364E-2],"categories":[],"categories_nodes":[],"categories_segments":[],"categories_sizes":[],"default_left":[0,0,0,0,0,0,0,0,0,0,0,0,0,0,0,0,0,0,0,0,0,0,0,0,0,0,0,0,0],"id":20,"left_children":[1,3,5,7,9,11,13,15,17,19,21,23,25,27,-1,-1,-1,-1,-1,-1,-1,-1,-1,-1,-1,-1,-1,-1,-1],"loss_changes":[1.0958481E2,3.9189228E1,2.225505E1,2.8562357E1,6.002224E0,2.471498E1,4.8236237E0,6.090007E0,2.6242409E0,1.8865356E0,4.2295656E0,3.8684082E0,7.185466E0,7.177952E0,0E0,0E0,0E0,0E0,0E0,0E0,0E0,0E0,0E0,0E0,0E0,0E0,0E0,0E0,0E0],"parents":[2147483647,0,0,1,1,2,2,3,3,4,4,5,5,6,6,7,7,8,8,9,9,10,10,11,11,12,12,13,13],"right_children":[2,4,6,8,10,12,14,16,18,20,22,24,26,28,-1,-1,-1,-1,-1,-1,-1,-1,-1,-1,-1,-1,-1,-1,-1],"split_conditions":[7.75707E-1,1E0,1.9058472E0,-1.4394331E-1,6.25E-1,1E0,6.25E-1,-9.006819E-1,1.936335E-1,2.5E-1,-1.3038661E0,3.75E-1,3.75E-1,1E0,1.2013796E-1,-3.321337E-2,-4.7319946E-3,1.3318866E-2,3.318077E-2,-3.6958158E-2,-2.4322964E-2,-1.4746052E-2,4.73494E-2,5.198467E-2,9.390021E-2,-1.8219747E-2,2.471876E-2,1.0776759E-1,4.9806364E-2],"split_indices":[5,1,5,5,2,1,2,5,5,2,3,2,2,1,0,0,0,0,0,0,0,0,0,0,0,0,0,0,0],"split_type":[0,0,0,0,0,0,0,0,0,0,0,0,0,0,0,0,0,0,0,0,0,0,0,0,0,0,0,0,0],"sum_hessian":[2.42E2,1.87E2,5.5E1,8.9E1,9.8E1,3.7E1,1.8E1,4.5E1,4.4E1,8.9E1,9E0,1.4E1,2.3E1,1.4E1,4E0,1.9E1,2.6E1,1.5E1,2.9E1,6.4E1,2.5E1,7E0,2E0,8E0,6E0,1E1,1.3E1,5E0,9E0],"tree_param":{"num_deleted":"0","num_feature":"9","num_nodes":"29","size_leaf_vector":"1"}},{"base_weights":[7.9214486E-5,-5.7550377E-1,6.725836E-1,-2.4558309E-1,-8.791894E-1,1.3661728E0,1.07063405E-1,-6.632224E-1,1.7206904E-1,-9.244815E-1,-6.888749E-3,8.7039465E-1,1.9977506E0,-2.047391E-1,1.3237531E0,-3.716449E-2,-2.013934E-2,-3.914344E-3,2.0289011E-2,-4.220951E-2,-3.3007536E-2,2.4289848E-2,4.4212155E-2,6.984912E-2,1.0207734E-1,-2.070008E-2,2.2433532E-2,2.8363653E-2,9.3605205E-2],"categories":[],"categories_nodes":[],"categories_segments":[],"categories_sizes":[],"default_left":[0,0,0,0,0,0,0,0,0,0,0,0,0,0,0,0,0,0,0,0,0,0,0,0,0,0,0,0,0],"id":21,"left_children":[1,3,5,7,9,11,13,15,17,19,-1,21,23,25,27,-1,-1,-1,-1,-1,-1,-1,-1,-1,-1,-1,-1,-1,-1],"loss_changes":[8.985928E1,1.2496811E1,4.196194E1,1.0494346E1,2.0293694E0,1.4880745E1,2.2447472E1,1.2053204E0,2.9734547E0,5.670204E-1,0E0,1.7390614E0,1.989914E0,1.2580648E1,7.719841E0,0E0,0E0,0E0,0E0,0E0,0E0,0E0,0E0,0E0,0E0,0E0,0E0,0E0,0E0],"parents":[2147483647,0,0,1,1,2,2,3,3,4,4,5,5,6,6,7,7,8,8,9,9,11,11,12,12,13,13,14,14],"right_children":[2,4,6,8,10,12,14,16,18,20,-1,22,24,26,28,-1,-1,-1,-1,-1,-1,-1,-1,-1,-1,-1,-1,-1,-1],"split_conditions":[1.936335E-1,1E0,1E0,-3.5165328E-1,7.5E-1,6.136244E-1,1.9058472E0,-1.1074535E0,2.5E-1,6.504065E-2,-6.888749E-3,2.5E-1,1.6383966E0,5E-1,3.75E-1,-3.716449E-2,-2.013934E-2,-3.914344E-3,2.0289011E-2,-4.220951E-2,-3.3007536E-2,2.4289848E-2,4.4212155E-2,6.984912E-2,1.0207734E-1,-2.070008E-2,2.2433532E-2,2.8363653E-2,9.3605205E-2],"split_indices":[5,1,1,5,2,5,5,5,2,7,0,2,5,2,2,0,0,0,0,0,0,0,0,0,0,0,0,0,0],"split_type":[0,0,0,0,0,0,0,0,0,0,0,0,0,0,0,0,0,0,0,0,0,0,0,0,0,0,0,0,0],"sum_hessian":[2.32E2,1.25E2,1.07E2,6E1,6.5E1,4.8E1,5.9E1,3E1,3E1,6.1E1,4E0,2.7E1,2.1E1,4.7E1,1.2E1,9E0,2.1E1,1.7E1,1.3E1,1.5E1,4.6E1,1.5E1,1.2E1,1.7E1,4E0,3.3E1,1.4E1,8E0,4E0],"tree_param":{"num_deleted":"0","num_feature":"9","num_nodes":"29","size_leaf_vector":"1"}},{"base_weights":[8.71493E-3,-3.5649154E-1,1.2455229E0,-5.867597E-1,5.1645458E-2,9.970521E-1,1.9456788E0,-7.60646E-1,-4.2058668E-1,-1.138727E-1,9.7453445E-1,6.7399603E-1,1.5894235E0,1.8166946E0,1.0023817E-1,-3.713544E-2,-2.5265392E-2,-2.2843288E-2,-1.1180364E-2,4.1177023E-2,-6.101118E-3,2.9091075E-2,4.4742703E-2,1.3804281E-2,3.751781E-2,9.330726E-2,1.6622351E-2,8.2028724E-2,5.9595555E-2],"categories":[],"categories_nodes":[],"categories_segments":[],"categories_sizes":[],"default_left":[0,0,0,0,0,0,0,0,0,0,0,0,0,0,0,0,0,0,0,0,0,0,0,0,0,0,0,0,0],"id":22,"left_children":[1,3,5,7,9,11,13,15,17,19,21,23,25,27,-1,-1,-1,-1,-1,-1,-1,-1,-1,-1,-1,-1,-1,-1,-1],"loss_changes":[1.07128815E2,1.7216345E1,9.219887E0,3.3402061E0,1.0115E1,7.5543747E0,8.1822205E-1,1.12574E0,1.3351707E0,3.0555074E0,3.2605648E-1,2.4620228E0,1.3721542E1,7.2509766E-1,0E0,0E0,0E0,0E0,0E0,0E0,0E0,0E0,0E0,0E0,0E0,0E0,0E0,0E0,0E0],"parents":[2147483647,0,0,1,1,2,2,3,3,4,4,5,5,6,6,7,7,8,8,9,9,10,10,11,11,12,12,13,13],"right_children":[2,4,6,8,10,12,14,16,18,20,22,24,26,28,-1,-1,-1,-1,-1,-1,-1,-1,-1,-1,-1,-1,-1,-1,-1],"split_conditions":[7.75707E-1,3.1063905E-2,1E0,-5.739334E-1,5E-1,6.25E-1,6.25E-1,-1.1074535E0,1.25E-1,-2.8795683E-1,1E0,1E0,5.9420437E-1,1.25E-1,1.0023817E-1,-3.713544E-2,-2.5265392E-2,-2.2843288E-2,-1.1180364E-2,4.1177023E-2,-6.101118E-3,2.9091075E-2,4.4742703E-2,1.3804281E-2,3.751781E-2,9.330726E-2,1.6622351E-2,8.2028724E-2,5.9595555E-2],"split_indices":[5,5,7,5,2,2,2,5,2,4,0,0,3,2,0,0,0,0,0,0,0,0,0,0,0,0,0,0,0],"split_type":[0,0,0,0,0,0,0,0,0,0,0,0,0,0,0,0,0,0,0,0,0,0,0,0,0,0,0,0,0],"sum_hessian":[2.37E2,1.83E2,5.4E1,1.17E2,6.6E1,4E1,1.4E1,5.7E1,6E1,5.6E1,1E1,2.6E1,1.4E1,1.2E1,2E0,1.8E1,3.9E1,2.5E1,3.5E1,2E0,5.4E1,5E0,5E0,1.3E1,1.3E1,8E0,6E0,5E0,7E0],"tree_param":{"num_deleted":"0","num_feature":"9","num_nodes":"29","size_leaf_vector":"1"}},{"base_weights":[-4.1725777E-2,-4.9824697E-1,8.821427E-1,-4.8822813E-2,-8.229019E-1,1.5872452E0,3.3172813E-1,-6.535229E-1,3.4942043E-1,-4.066012E-2,-7.4801546E-1,9.1750246E-1,1.9320688E0,-2.7452397E-1,1.1601714E0,-3.3581927E-2,-1.0140747E-2,4.2332034E-3,2.4906758E-2,-3.2201674E-2,-1.968838E-2,2.851592E-2,4.3570828E-2,6.494254E-2,9.7856656E-2,-2.0697298E-2,3.1942844E-2,2.7967168E-2,1.0399982E-1],"categories":[],"categories_nodes":[],"categories_segments":[],"categories_sizes":[],"default_left":[0,0,0,0,0,0,0,0,0,0,0,0,0,0,0,0,0,0,0,0,0,0,0,0,0,0,0,0,0],"id":23,"left_children":[1,3,5,7,9,11,13,15,17,-1,19,21,23,25,27,-1,-1,-1,-1,-1,-1,-1,-1,-1,-1,-1,-1,-1,-1],"loss_changes":[1.0212151E2,2.3629753E1,3.1005638E1,1.6413849E1,1.6119232E0,7.9260025E0,2.2673931E1,2.331376E0,2.9455533E0,0E0,1.5347786E0,3.684349E-1,2.9945602E0,7.759695E0,1.2554354E1,0E0,0E0,0E0,0E0,0E0,0E0,0E0,0E0,0E0,0E0,0E0,0E0,0E0,0E0],"parents":[2147483647,0,0,1,1,2,2,3,3,4,4,5,5,6,6,7,7,8,8,10,10,11,11,12,12,13,13,14,14],"right_children":[2,4,6,8,10,12,14,16,18,-1,20,22,24,26,28,-1,-1,-1,-1,-1,-1,-1,-1,-1,-1,-1,-1,-1,-1],"split_conditions":[4.1759855E-1,1E0,1E0,-3.5165328E-1,6.504065E-2,6.136244E-1,5E-1,-9.331952E-1,1.17135905E-1,-4.066012E-2,2.5E-1,2.5E-1,1.6383966E0,1E0,1.6383966E0,-3.3581927E-2,-1.0140747E-2,4.2332034E-3,2.4906758E-2,-3.2201674E-2,-1.968838E-2,2.851592E-2,4.3570828E-2,6.494254E-2,9.7856656E-2,-2.0697298E-2,3.1942844E-2,2.7967168E-2,1.0399982E-1],"split_indices":[5,1,1,5,7,5,2,5,3,0,2,2,5,7,5,0,0,0,0,0,0,0,0,0,0,0,0,0,0],"split_type":[0,0,0,0,0,0,0,0,0,0,0,0,0,0,0,0,0,0,0,0,0,0,0,0,0,0,0,0,0],"sum_hessian":[2.42E2,1.62E2,8E1,6.8E1,9.4E1,3.5E1,4.5E1,2.7E1,4.1E1,2.2E1,7.2E1,1.2E1,2.3E1,2.6E1,1.9E1,1.7E1,1E1,2.3E1,1.8E1,5.1E1,2.1E1,7E0,5E0,1.7E1,6E0,2.1E1,5E0,1.5E1,4E0],"tree_param":{"num_deleted":"0","num_feature":"9","num_nodes":"29","size_leaf_vector":"1"}},{"base_weights":[9.705305E-3,-3.225228E-1,9.951915E-1,1.7258139E-1,-7.1189255E-1,1.7822254E0,5.2823037E-1,-2.3523304E-1,7.655147E-1,-7.771933E-1,-2.7255332E-2,1.6277765E0,8.806237E-2,-1.3975234E-1,1.2301743E0,-2.3423098E-2,3.2301217E-3,2.0014891E-2,4.014908E-2,-3.5410598E-2,-2.5226768E-2,-1.3837801E-2,4.237869E-2,4.2936977E-2,7.405133E-2,-3.5480037E-2,7.643796E-3,7.392374E-2,1.6688919E-2],"categories":[],"categories_nodes":[],"categories_segments":[],"categories_sizes":[],"default_left":[0,0,0,0,0,0,0,0,0,0,0,0,0,0,0,0,0,0,0,0,0,0,0,0,0,0,0,0,0],"id":24,"left_children":[1,3,5,7,9,11,13,15,17,19,21,23,-1,25,27,-1,-1,-1,-1,-1,-1,-1,-1,-1,-1,-1,-1,-1,-1],"loss_changes":[8.0599045E1,3.5502655E1,2.270628E1,1.9625084E1,4.592884E0,1.5298767E0,1.8350235E1,5.8187747E0,2.2141953E0,1.575531E0,3.46704E0,2.6195602E0,0E0,5.404323E0,1.0558016E1,0E0,0E0,0E0,0E0,0E0,0E0,0E0,0E0,0E0,0E0,0E0,0E0,0E0,0E0],"parents":[2147483647,0,0,1,1,2,2,3,3,4,4,5,5,6,6,7,7,8,8,9,9,10,10,11,11,13,13,14,14],"right_children":[2,4,6,8,10,12,14,16,18,20,22,24,-1,26,28,-1,-1,-1,-1,-1,-1,-1,-1,-1,-1,-1,-1,-1,-1],"split_conditions":[6.136244E-1,1E0,1E0,1.17135905E-1,6.25E-1,1.6383966E0,3.75E-1,-5.739334E-1,2.5E-1,1E0,-1.3038661E0,2.5E-1,8.806237E-2,5.9420437E-1,1.5562319E0,-2.3423098E-2,3.2301217E-3,2.0014891E-2,4.014908E-2,-3.5410598E-2,-2.5226768E-2,-1.3837801E-2,4.237869E-2,4.2936977E-2,7.405133E-2,-3.5480037E-2,7.643796E-3,7.392374E-2,1.6688919E-2],"split_indices":[5,1,1,3,2,5,2,5,2,0,3,2,0,3,3,0,0,0,0,0,0,0,0,0,0,0,0,0,0],"split_type":[0,0,0,0,0,0,0,0,0,0,0,0,0,0,0,0,0,0,0,0,0,0,0,0,0,0,0,0,0],"sum_hessian":[2.46E2,1.84E2,6.2E1,8.1E1,1.03E2,2.3E1,3.9E1,4.8E1,3.3E1,9.4E1,9E0,1.8E1,5E0,2E1,1.9E1,2.2E1,2.6E1,1.8E1,1.5E1,4.1E1,5.3E1,7E0,2E0,7E0,1.1E1,6E0,1.4E1,1E1,9E0],"tree_param":{"num_deleted":"0","num_feature":"9","num_nodes":"29","size_leaf_vector":"1"}},{"base_weights":[-1.8731449E-2,-3.3118132E-1,1.059375E0,9.445158E-2,-6.543545E-1,1.8597385E0,5.617092E-1,-3.8593793E-1,5.9907466E-1,-7.5176865E-1,-9.232811E-2,1.626556E0,9.2254646E-2,-3.6664195E-2,1.4136307E0,-2.3636766E-2,-4.8889457E-3,1.6402049E-2,3.2472778E-2,-2.5696898E-2,-3.381366E-2,-1.39295E-2,2.7217712E-2,5.048482E-2,8.434169E-2,-2.8557286E-2,1.0276166E-2,8.490368E-2,2.250357E-2],"categories":[],"categories_nodes":[],"categories_segments":[],"categories_sizes":[],"default_left":[0,0,0,0,0,0,0,0,0,0,0,0,0,0,0,0,0,0,0,0,0,0,0,0,0,0,0,0,0],"id":25,"left_children":[1,3,5,7,9,11,13,15,17,19,21,23,-1,25,27,-1,-1,-1,-1,-1,-1,-1,-1,-1,-1,-1,-1,-1,-1],"loss_changes":[8.256546E1,2.6158634E1,2.1820644E1,1.9915098E1,5.897602E0,2.378975E0,1.7395016E1,2.506637E0,1.6589155E0,9.0351105E-1,3.5319912E0,2.4068756E0,0E0,4.3809004E0,9.239151E0,0E0,0E0,0E0,0E0,0E0,0E0,0E0,0E0,0E0,0E0,0E0,0E0,0E0,0E0],"parents":[2147483647,0,0,1,1,2,2,3,3,4,4,5,5,6,6,7,7,8,8,9,9,10,10,11,11,13,13,14,14],"right_children":[2,4,6,8,10,12,14,16,18,20,22,24,-1,26,28,-1,-1,-1,-1,-1,-1,-1,-1,-1,-1,-1,-1,-1,-1],"split_conditions":[7.75707E-1,1E0,1E0,-1.4394331E-1,5E-1,1.6383966E0,5E-1,-5.739334E-1,2.5E-1,6.919686E-1,2.4516454E-1,6.25E-1,9.2254646E-2,5.9420437E-1,1.5562319E0,-2.3636766E-2,-4.8889457E-3,1.6402049E-2,3.2472778E-2,-2.5696898E-2,-3.381366E-2,-1.39295E-2,2.7217712E-2,5.048482E-2,8.434169E-2,-2.8557286E-2,1.0276166E-2,8.490368E-2,2.250357E-2],"split_indices":[5,1,1,5,2,5,2,5,2,8,3,2,0,3,3,0,0,0,0,0,0,0,0,0,0,0,0,0,0],"split_type":[0,0,0,0,0,0,0,0,0,0,0,0,0,0,0,0,0,0,0,0,0,0,0,0,0,0,0,0,0],"sum_hessian":[2.45E2,1.9E2,5.5E1,8.2E1,1.08E2,2.1E1,3.4E1,4.2E1,4E1,9.2E1,1.6E1,1.5E1,6E0,2E1,1.4E1,2.2E1,2E1,2.4E1,1.6E1,5.8E1,3.4E1,1.2E1,4E0,1E1,5E0,6E0,1.4E1,7E0,7E0],"tree_param":{"num_deleted":"0","num_feature":"9","num_nodes":"29","size_leaf_vector":"1"}},{"base_weights":[-1.192142E-3,-3.3405104E-1,1.0370935E0,1.3865215E-1,-7.112598E-1,1.7528608E0,5.4977447E-1,-5.5186945E-1,4.5895416E-1,-3.7622396E-2,-6.4104193E-1,1.5227326E0,2.2560353E0,1.8454269E-1,1.553116E0,-2.5084544E-2,-1.0573668E-2,6.854245E-3,2.8968953E-2,-2.7714467E-2,-1.3487659E-2,4.942702E-2,8.299972E-2,7.416752E-2,9.364032E-2,-1.2225716E-2,2.7939001E-2,4.49653E-2,1.0613246E-1],"categories":[],"categories_nodes":[],"categories_segments":[],"categories_sizes":[],"default_left":[0,0,0,0,0,0,0,0,0,0,0,0,0,0,0,0,0,0,0,0,0,0,0,0,0,0,0,0,0],"id":26,"left_children":[1,3,5,7,9,11,13,15,17,-1,19,21,23,25,27,-1,-1,-1,-1,-1,-1,-1,-1,-1,-1,-1,-1,-1,-1],"loss_changes":[8.1253525E1,3.176801E1,1.9799625E1,1.7504753E1,1.8290939E0,2.3651428E0,1.2435578E1,6.927886E-1,4.4967184E0,0E0,1.8822021E0,2.1354675E0,2.3441315E-2,6.9366255E0,3.8825188E0,0E0,0E0,0E0,0E0,0E0,0E0,0E0,0E0,0E0,0E0,0E0,0E0,0E0,0E0],"parents":[2147483647,0,0,1,1,2,2,3,3,4,4,5,5,6,6,7,7,8,8,10,10,11,11,12,12,13,13,14,14],"right_children":[2,4,6,8,10,12,14,16,18,-1,20,22,24,26,28,-1,-1,-1,-1,-1,-1,-1,-1,-1,-1,-1,-1,-1,-1],"split_conditions":[7.75707E-1,1E0,1E0,-3.5165328E-1,6.504065E-2,1.6383966E0,1E0,-9.006819E-1,1.936335E-1,-3.7622396E-2,3.75E-1,7.5E-1,1E0,3.75E-1,6.25E-1,-2.5084544E-2,-1.0573668E-2,6.854245E-3,2.8968953E-2,-2.7714467E-2,-1.3487659E-2,4.942702E-2,8.299972E-2,7.416752E-2,9.364032E-2,-1.2225716E-2,2.7939001E-2,4.49653E-2,1.0613246E-1],"split_indices":[5,1,1,5,7,5,7,5,5,0,2,2,7,2,2,0,0,0,0,0,0,0,0,0,0,0,0,0,0],"split_type":[0,0,0,0,0,0,0,0,0,0,0,0,0,0,0,0,0,0,0,0,0,0,0,0,0,0,0,0,0],"sum_hessian":[2.35E2,1.78E2,5.7E1,7.9E1,9.9E1,2.3E1,3.4E1,2.5E1,5.4E1,2E1,7.9E1,1.6E1,7E0,2.5E1,9E0,1.8E1,7E0,2.8E1,2.6E1,6.1E1,1.8E1,1.2E1,4E0,3E0,4E0,1.3E1,1.2E1,7E0,2E0],"tree_param":{"num_deleted":"0","num_feature":"9","num_nodes":"29","size_leaf_vector":"1"}},{"base_weights":[2.4575245E-2,-3.8713956E-1,7.284166E-1,-3.0114537E-2,-6.821503E-1,1.245397E0,3.367871E-1,-5.7936704E-1,2.8037664E-1,-7.222702E-1,-5.006756E-1,1.0442067E0,8.298264E-2,-1.568913E-1,1.29452E0,-2.8339261E-2,-1.2025968E-2,2.9806693E-3,2.1617828E-2,-3.00644E-2,-2.2352614E-2,-5.9229564E-3,-2.3421368E-2,2.9131083E-2,5.1127933E-2,-2.690254E-2,7.955611E-3,6.7520395E-2,1.2889403E-2],"categories":[],"categories_nodes":[],"categories_segments":[],"categories_sizes":[],"default_left":[0,0,0,0,0,0,0,0,0,0,0,0,0,0,0,0,0,0,0,0,0,0,0,0,0,0,0,0,0],"id":27,"left_children":[1,3,5,7,9,11,13,15,17,19,21,23,-1,25,27,-1,-1,-1,-1,-1,-1,-1,-1,-1,-1,-1,-1,-1,-1],"loss_changes":[7.307115E1,1.6740782E1,1.8787117E1,1.230729E1,5.877228E-1,7.252392E0,2.512598E1,1.0851288E0,2.6464062E0,5.737114E-1,6.038294E-1,2.6308937E0,0E0,7.023974E0,8.094233E0,0E0,0E0,0E0,0E0,0E0,0E0,0E0,0E0,0E0,0E0,0E0,0E0,0E0,0E0],"parents":[2147483647,0,0,1,1,2,2,3,3,4,4,5,5,6,6,7,7,8,8,9,9,10,10,11,11,13,13,14,14],"right_children":[2,4,6,8,10,12,14,16,18,20,22,24,-1,26,28,-1,-1,-1,-1,-1,-1,-1,-1,-1,-1,-1,-1,-1,-1],"split_conditions":[2.9636008E-1,1E0,1E0,-3.9573136E-1,4.344618E-1,1.6383966E0,5E-1,-9.331952E-1,2.5E-1,2.5E-1,-3.9573136E-1,6.136244E-1,8.298264E-2,3.9644656E-1,1.5562319E0,-2.8339261E-2,-1.2025968E-2,2.9806693E-3,2.1617828E-2,-3.00644E-2,-2.2352614E-2,-5.9229564E-3,-2.3421368E-2,2.9131083E-2,5.1127933E-2,-2.690254E-2,7.955611E-3,6.7520395E-2,1.2889403E-2],"split_indices":[3,1,1,5,6,5,2,5,2,2,5,5,0,6,3,0,0,0,0,0,0,0,0,0,0,0,0,0,0],"split_type":[0,0,0,0,0,0,0,0,0,0,0,0,0,0,0,0,0,0,0,0,0,0,0,0,0,0,0,0,0],"sum_hessian":[2.52E2,1.59E2,9.3E1,7.2E1,8.7E1,4E1,5.3E1,2.6E1,4.6E1,7.1E1,1.6E1,3.3E1,7E0,3.5E1,1.8E1,1.6E1,1E1,2.7E1,1.9E1,4.8E1,2.3E1,4E0,1.2E1,1.7E1,1.6E1,1.4E1,2.1E1,1.2E1,6E0],"tree_param":{"num_deleted":"0","num_feature":"9","num_nodes":"29","size_leaf_vector":"1"}},{"base_weights":[-2.7315345E-2,-2.912897E-1,9.02896E-1,1.0609161E-1,-6.296594E-1,1.4548702E0,5.654646E-1,-4.7575265E-1,3.8751027E-1,-8.9370596E-1,-5.63533E-1,4.872668E-2,7.510672E-2,1.4301702E-1,1.2981892E0,-2.6431108E-2,-8.518404E-3,4.0504388E-3,2.4125937E-2,-3.2989204E-2,-4.281491E-2,-1.9663086E-2,-2.6765767E-2,-8.381485E-3,6.982161E-3,3.365653E-2,5.7138916E-2],"categories":[],"categories_nodes":[],"categories_segments":[],"categories_sizes":[],"default_left":[0,0,0,0,0,0,0,0,0,0,0,0,0,0,0,0,0,0,0,0,0,0,0,0,0,0,0],"id":28,"left_children":[1,3,5,7,9,11,13,15,17,19,21,-1,-1,23,25,-1,-1,-1,-1,-1,-1,-1,-1,-1,-1,-1,-1],"loss_changes":[5.8957977E1,2.5167421E1,9.792324E0,1.4104856E1,1.7045326E0,1.6102791E0,1.0199076E1,1.506115E0,3.9691105E0,3.6535263E-2,4.9746895E-1,0E0,0E0,3.0532134E-1,8.599224E-1,0E0,0E0,0E0,0E0,0E0,0E0,0E0,0E0,0E0,0E0,0E0,0E0],"parents":[2147483647,0,0,1,1,2,2,3,3,4,4,5,5,6,6,7,7,8,8,9,9,10,10,13,13,14,14],"right_children":[2,4,6,8,10,12,14,16,18,20,22,-1,-1,24,26,-1,-1,-1,-1,-1,-1,-1,-1,-1,-1,-1,-1],"split_conditions":[6.136244E-1,1E0,1E0,-3.5165328E-1,6.504065E-2,1.6383966E0,7.5609756E-1,1E0,1.17135905E-1,1.17135905E-1,6.919686E-1,4.872668E-2,7.510672E-2,1.5097865E-1,1E0,-2.6431108E-2,-8.518404E-3,4.0504388E-3,2.4125937E-2,-3.2989204E-2,-4.281491E-2,-1.9663086E-2,-2.6765767E-2,-8.381485E-3,6.982161E-3,3.365653E-2,5.7138916E-2],"split_indices":[5,1,1,5,7,5,7,0,3,3,8,0,0,8,0,0,0,0,0,0,0,0,0,0,0,0,0],"split_type":[0,0,0,0,0,0,0,0,0,0,0,0,0,0,0,0,0,0,0,0,0,0,0,0,0,0,0],"sum_hessian":[2.4E2,1.87E2,5.3E1,8.6E1,1.01E2,2E1,3.3E1,2.8E1,5.8E1,2E1,8.1E1,1.5E1,5E0,2.1E1,1.2E1,1.5E1,1.3E1,2.7E1,3.1E1,1.8E1,2E0,6E1,2.1E1,2E0,1.9E1,4E0,8E0],"tree_param":{"num_deleted":"0","num_feature":"9","num_nodes":"27","size_leaf_vector":"1"}},{"base_weights":[3.76761E-3,-3.4065405E-1,7.054202E-1,-4.9461025E-1,-8.930457E-2,4.5872343E-1,1.549109E0,-5.8463067E-1,-3.2354018E-1,-1.893489E-1,4.2692688E-1,1.3373563E-1,9.064777E-1,2.6255175E-2,1.7895213E0,-2.9887756E-2,-2.0069692E-2,-8.3117355E-3,-1.6563386E-2,-1.3867908E-2,-1.0504517E-3,4.8030987E-3,2.74705E-2,-4.024672E-3,1.7901462E-2,5.29075E-2,2.2998938E-2,5.9088558E-2,9.003246E-2],"categories":[],"categories_nodes":[],"categories_segments":[],"categories_sizes":[],"default_left":[0,0,0,0,0,0,0,0,0,0,0,0,0,0,0,0,0,0,0,0,0,0,0,0,0,0,0,0,0],"id":29,"left_children":[1,3,5,7,9,11,13,15,17,19,21,23,25,-1,27,-1,-1,-1,-1,-1,-1,-1,-1,-1,-1,-1,-1,-1,-1],"loss_changes":[5.876461E1,6.297304E0,1.6581379E1,1.5277443E0,3.2073755E0,9.006005E0,3.6163292E0,7.2431755E-1,3.9102626E-1,1.4554962E0,8.6499226E-1,2.8960073E0,3.7041492E0,0E0,1.6158371E0,0E0,0E0,0E0,0E0,0E0,0E0,0E0,0E0,0E0,0E0,0E0,0E0,0E0,0E0],"parents":[2147483647,0,0,1,1,2,2,3,3,4,4,5,5,6,6,7,7,8,8,9,9,10,10,11,11,12,12,14,14],"right_children":[2,4,6,8,10,12,14,16,18,20,22,24,26,-1,28,-1,-1,-1,-1,-1,-1,-1,-1,-1,-1,-1,-1,-1,-1],"split_conditions":[4.1759855E-1,-7.490255E-2,1.9058472E0,2.5E-1,3.75E-1,3.75E-1,1.5097865E-1,-1.1074535E0,1E0,1.25E-1,1E0,3.9644656E-1,5.9420437E-1,2.6255175E-2,6.25E-1,-2.9887756E-2,-2.0069692E-2,-8.3117355E-3,-1.6563386E-2,-1.3867908E-2,-1.0504517E-3,4.8030987E-3,2.74705E-2,-4.024672E-3,1.7901462E-2,5.29075E-2,2.2998938E-2,5.9088558E-2,9.003246E-2],"split_indices":[5,3,5,2,2,2,8,5,0,2,0,6,3,0,2,0,0,0,0,0,0,0,0,0,0,0,0,0,0],"split_type":[0,0,0,0,0,0,0,0,0,0,0,0,0,0,0,0,0,0,0,0,0,0,0,0,0,0,0,0,0],"sum_hessian":[2.43E2,1.63E2,8E1,1.01E2,6.2E1,6.2E1,1.8E1,6.6E1,3.5E1,5.2E1,1E1,3.6E1,2.6E1,4E0,1.4E1,1.5E1,5.1E1,1.8E1,1.7E1,2.5E1,2.7E1,5E0,5E0,2.1E1,1.5E1,1E1,1.6E1,1E1,4E0],"tree_param":{"num_deleted":"0","num_feature":"9","num_nodes":"29","size_leaf_vector":"1"}},{"base_weights":[2.3620432E-2,-3.6295566E-1,7.368528E-1,-3.9184436E-2,-6.291382E-1,1.2497109E0,3.8650194E-1,-2.1573475E-1,6.633546E-1,-6.738568E-1,-1.2669797E-1,7.6774347E-1,1.5436993E0,-1.8909283E-1,1.1801468E0,-2.3026774E-2,-1.194702E-3,1.6508821E-2,3.3844084E-2,-3.1289082E-2,-2.0690355E-2,7.368263E-3,-2.112721E-2,2.4942128E-2,3.8465016E-2,5.4589752E-2,8.3314165E-2,-2.7457716E-2,9.220777E-3,2.1015186E-2,7.118948E-2],"categories":[],"categories_nodes":[],"categories_segments":[],"categories_sizes":[],"default_left":[0,0,0,0,0,0,0,0,0,0,0,0,0,0,0,0,0,0,0,0,0,0,0,0,0,0,0,0,0,0,0],"id":30,"left_children":[1,3,5,7,9,11,13,15,17,19,21,23,25,27,29,-1,-1,-1,-1,-1,-1,-1,-1,-1,-1,-1,-1,-1,-1,-1,-1],"loss_changes":[6.594138E1,1.3351265E1,1.5044041E1,8.693605E0,1.8918266E0,4.704811E0,2.2905638E1,3.9893444E0,6.743345E-1,1.444088E0,9.76443E-1,2.846694E-1,1.263382E0,6.644721E0,8.953827E0,0E0,0E0,0E0,0E0,0E0,0E0,0E0,0E0,0E0,0E0,0E0,0E0,0E0,0E0,0E0,0E0],"parents":[2147483647,0,0,1,1,2,2,3,3,4,4,5,5,6,6,7,7,8,8,9,9,10,10,11,11,12,12,13,13,14,14],"right_children":[2,4,6,8,10,12,14,16,18,20,22,24,26,28,30,-1,-1,-1,-1,-1,-1,-1,-1,-1,-1,-1,-1,-1,-1,-1,-1],"split_conditions":[4.1759855E-1,1E0,1E0,1.936335E-1,6.25E-1,7.75707E-1,5E-1,-9.006819E-1,2.5E-1,7.317073E-2,1E0,2.5E-1,1E0,3.9644656E-1,1.8699187E-1,-2.3026774E-2,-1.194702E-3,1.6508821E-2,3.3844084E-2,-3.1289082E-2,-2.0690355E-2,7.368263E-3,-2.112721E-2,2.4942128E-2,3.8465016E-2,5.4589752E-2,8.3314165E-2,-2.7457716E-2,9.220777E-3,2.1015186E-2,7.118948E-2],"split_indices":[5,1,1,5,2,5,2,5,2,7,0,2,7,6,7,0,0,0,0,0,0,0,0,0,0,0,0,0,0,0,0],"split_type":[0,0,0,0,0,0,0,0,0,0,0,0,0,0,0,0,0,0,0,0,0,0,0,0,0,0,0,0,0,0,0],"sum_hessian":[2.39E2,1.55E2,8.4E1,7E1,8.5E1,3.4E1,5E1,5.6E1,1.4E1,7.8E1,7E0,1.3E1,2.1E1,2.9E1,2.1E1,1.8E1,3.8E1,7E0,7E0,3.7E1,4.1E1,4E0,3E0,9E0,4E0,1.8E1,3E0,1.3E1,1.6E1,1.1E1,1E1],"tree_param":{"num_deleted":"0","num_feature":"9","num_nodes":"31","size_leaf_vector":"1"}},{"base_weights":[-5.9385598E-2,-3.6424422E-1,6.157219E-1,-5.0594337E-2,-6.0929865E-1,1.0624197E0,3.09558E-1,-4.8045963E-1,2.3923366E-1,-6.8632406E-1,-3.6204016E-1,7.0525146E-1,1.3305137E0,-1.4212742E-1,1.025556E0,-2.9711926E-2,-1.3919372E-2,1.5051962E-3,1.8712843E-2,-2.7195724E-2,-9.879132E-3,-3.0118318E-2,-7.582518E-3,2.383459E-2,3.140524E-2,4.7454495E-2,7.3459364E-2,-1.5249559E-2,1.7737065E-2,2.0366456E-2,7.29539E-2],"categories":[],"categories_nodes":[],"categories_segments":[],"categories_sizes":[],"default_left":[0,0,0,0,0,0,0,0,0,0,0,0,0,0,0,0,0,0,0,0,0,0,0,0,0,0,0,0,0,0,0],"id":31,"left_children":[1,3,5,7,9,11,13,15,17,19,21,23,25,27,29,-1,-1,-1,-1,-1,-1,-1,-1,-1,-1,-1,-1,-1,-1,-1,-1],"loss_changes":[4.9009415E1,1.2597321E1,1.0083656E1,8.991243E0,1.7182236E0,2.7787323E0,1.427791E1,9.6422005E-1,2.1455433E0,7.3098373E-1,1.5110238E0,6.35972E-2,6.7386055E-1,4.229061E0,7.3166656E0,0E0,0E0,0E0,0E0,0E0,0E0,0E0,0E0,0E0,0E0,0E0,0E0,0E0,0E0,0E0,0E0],"parents":[2147483647,0,0,1,1,2,2,3,3,4,4,5,5,6,6,7,7,8,8,9,9,10,10,11,11,12,12,13,13,14,14],"right_children":[2,4,6,8,10,12,14,16,18,20,22,24,26,28,30,-1,-1,-1,-1,-1,-1,-1,-1,-1,-1,-1,-1,-1,-1,-1,-1],"split_conditions":[4.1644022E-1,1E0,1E0,-3.5165328E-1,3.75E-1,7.75707E-1,5E-1,-1.1074535E0,2.5E-1,1E0,6.504065E-2,1E0,7.5609756E-1,7.5609756E-1,1.8699187E-1,-2.9711926E-2,-1.3919372E-2,1.5051962E-3,1.8712843E-2,-2.7195724E-2,-9.879132E-3,-3.0118318E-2,-7.582518E-3,2.383459E-2,3.140524E-2,4.7454495E-2,7.3459364E-2,-1.5249559E-2,1.7737065E-2,2.0366456E-2,7.29539E-2],"split_indices":[5,1,1,5,2,5,2,5,2,7,7,0,7,7,7,0,0,0,0,0,0,0,0,0,0,0,0,0,0,0,0],"split_type":[0,0,0,0,0,0,0,0,0,0,0,0,0,0,0,0,0,0,0,0,0,0,0,0,0,0,0,0,0,0,0],"sum_hessian":[2.38E2,1.64E2,7.4E1,7.2E1,9.2E1,3E1,4.4E1,2.9E1,4.3E1,7E1,2.2E1,1.3E1,1.7E1,2.7E1,1.7E1,8E0,2.1E1,2.4E1,1.9E1,6.6E1,4E0,6E0,1.6E1,8E0,5E0,1.5E1,2E0,1.9E1,8E0,1.1E1,6E0],"tree_param":{"num_deleted":"0","num_feature":"9","num_nodes":"31","size_leaf_vector":"1"}},{"base_weights":[-1.9263491E-2,-3.2487178E-1,5.5516E-1,2.1040011E-3,-5.656133E-1,1.0549731E0,2.3040947E-1,-5.093071E-1,2.529087E-1,-3.024583E-2,-5.127852E-1,9.279586E-1,1.7401121E0,-1.12597354E-1,1.2295376E0,-2.8139433E-2,-8.8608E-3,2.9777584E-3,2.1677284E-2,-2.1415845E-2,-9.0378765E-3,2.8364839E-2,5.615834E-2,5.2097086E-2,8.5267924E-2,-1.5822876E-2,1.3310106E-2,2.4963852E-2,7.197925E-2],"categories":[],"categories_nodes":[],"categories_segments":[],"categories_sizes":[],"default_left":[0,0,0,0,0,0,0,0,0,0,0,0,0,0,0,0,0,0,0,0,0,0,0,0,0,0,0,0,0],"id":32,"left_children":[1,3,5,7,9,11,13,15,17,-1,19,21,23,25,27,-1,-1,-1,-1,-1,-1,-1,-1,-1,-1,-1,-1,-1,-1],"loss_changes":[4.2503956E1,1.2452408E1,1.36069565E1,8.607499E0,1.0360928E0,2.7188072E0,1.7530949E1,1.3619604E0,2.465252E0,0E0,9.5225716E-1,2.7087002E0,6.631136E-1,5.301325E0,4.7969036E0,0E0,0E0,0E0,0E0,0E0,0E0,0E0,0E0,0E0,0E0,0E0,0E0,0E0,0E0],"parents":[2147483647,0,0,1,1,2,2,3,3,4,4,5,5,6,6,7,7,8,8,10,10,11,11,12,12,13,13,14,14],"right_children":[2,4,6,8,10,12,14,16,18,-1,20,22,24,26,28,-1,-1,-1,-1,-1,-1,-1,-1,-1,-1,-1,-1,-1,-1],"split_conditions":[2.9750934E-1,1E0,1E0,-5.0454766E-1,6.504065E-2,7.5E-1,1E0,1E0,1.17135905E-1,-3.024583E-2,5E-1,1.3166258E0,1E0,3.75E-1,5E-1,-2.8139433E-2,-8.8608E-3,2.9777584E-3,2.1677284E-2,-2.1415845E-2,-9.0378765E-3,2.8364839E-2,5.615834E-2,5.2097086E-2,8.5267924E-2,-1.5822876E-2,1.3310106E-2,2.4963852E-2,7.197925E-2],"split_indices":[3,1,1,3,7,2,7,0,3,0,2,3,0,2,2,0,0,0,0,0,0,0,0,0,0,0,0,0,0],"split_type":[0,0,0,0,0,0,0,0,0,0,0,0,0,0,0,0,0,0,0,0,0,0,0,0,0,0,0,0,0],"sum_hessian":[2.42E2,1.58E2,8.4E1,6.7E1,9.1E1,3.3E1,5.1E1,2.2E1,4.5E1,1.7E1,7.4E1,2.8E1,5E0,3.8E1,1.3E1,1.2E1,1E1,2.9E1,1.6E1,6.3E1,1.1E1,2.1E1,7E0,3E0,2E0,2.3E1,1.5E1,7E0,6E0],"tree_param":{"num_deleted":"0","num_feature":"9","num_nodes":"29","size_leaf_vector":"1"}},{"base_weights":[2.4545385E-2,-2.69229E-1,6.083563E-1,2.9221736E-2,-5.1624084E-1,3.7193158E-1,1.3129871E0,-1.5923938E-1,5.1890206E-1,-2.8544173E-2,-4.5926723E-1,9.3873596E-1,-9.23184E-2,5.6927216E-1,1.9124475E0,-1.8189784E-2,8.8880473E-4,9.585007E-3,3.210556E-2,-2.2527905E-2,-1.398047E-2,2.5409926E-2,5.6363765E-2,-1.7440384E-2,2.0725397E-2,6.816673E-2,-3.6279943E-2,6.135392E-2,8.191876E-2],"categories":[],"categories_nodes":[],"categories_segments":[],"categories_sizes":[],"default_left":[0,0,0,0,0,0,0,0,0,0,0,0,0,0,0,0,0,0,0,0,0,0,0,0,0,0,0,0,0],"id":33,"left_children":[1,3,5,7,9,11,13,15,17,-1,19,21,23,25,27,-1,-1,-1,-1,-1,-1,-1,-1,-1,-1,-1,-1,-1,-1],"loss_changes":[4.1019974E1,1.1736128E1,1.327614E1,6.662998E0,1.1000023E0,1.5827342E1,8.829182E0,3.0186818E0,1.6952205E0,0E0,8.212576E-1,3.8689728E0,7.6578875E0,1.6865084E1,4.794922E-1,0E0,0E0,0E0,0E0,0E0,0E0,0E0,0E0,0E0,0E0,0E0,0E0,0E0,0E0],"parents":[2147483647,0,0,1,1,2,2,3,3,4,4,5,5,6,6,7,7,8,8,10,10,11,11,12,12,13,13,14,14],"right_children":[2,4,6,8,10,12,14,16,18,-1,20,22,24,26,28,-1,-1,-1,-1,-1,-1,-1,-1,-1,-1,-1,-1,-1,-1],"split_conditions":[2.9750934E-1,1E0,6.25E-1,-3.0391088E-2,6.504065E-2,1E0,1.8699187E-1,-4.221592E-1,2.5E-1,-2.8544173E-2,1.8829411E-1,1.3166258E0,1.510532E0,1E0,1E0,-1.8189784E-2,8.8880473E-4,9.585007E-3,3.210556E-2,-2.2527905E-2,-1.398047E-2,2.5409926E-2,5.6363765E-2,-1.7440384E-2,2.0725397E-2,6.816673E-2,-3.6279943E-2,6.135392E-2,8.191876E-2],"split_indices":[3,1,2,3,7,1,7,3,2,0,8,3,3,0,0,0,0,0,0,0,0,0,0,0,0,0,0,0,0],"split_type":[0,0,0,0,0,0,0,0,0,0,0,0,0,0,0,0,0,0,0,0,0,0,0,0,0,0,0,0,0],"sum_hessian":[2.39E2,1.59E2,8E1,7.2E1,8.7E1,6E1,2E1,5.2E1,2E1,1.7E1,7E1,2.7E1,3.3E1,9E0,1.1E1,1.9E1,3.3E1,1.1E1,9E0,2.9E1,4.1E1,1.8E1,9E0,2.1E1,1.2E1,5E0,4E0,5E0,6E0],"tree_param":{"num_deleted":"0","num_feature":"9","num_nodes":"29","size_leaf_vector":"1"}},{"base_weights":[-2.209527E-2,-2.333079E-1,7.58281E-1,1.1075545E-1,-5.0727504E-1,1.2355965E0,4.3735564E-1,-3.6667117E-1,3.456055E-1,-6.0013425E-1,-2.3073986E-1,9.745909E-1,1.7033685E0,1.2185622E-1,1.1649818E0,-2.1849088E-2,-5.449238E-3,3.0039886E-3,2.105975E-2,-2.0075172E-2,-2.8443914E-2,-2.0098887E-2,9.183528E-3,2.8574828E-2,4.4220075E-2,7.185666E-2,5.4414853E-2,-1.2477214E-2,2.027126E-2,3.238953E-2,8.410238E-2],"categories":[],"categories_nodes":[],"categories_segments":[],"categories_sizes":[],"default_left":[0,0,0,0,0,0,0,0,0,0,0,0,0,0,0,0,0,0,0,0,0,0,0,0,0,0,0,0,0,0,0],"id":34,"left_children":[1,3,5,7,9,11,13,15,17,19,21,23,25,27,29,-1,-1,-1,-1,-1,-1,-1,-1,-1,-1,-1,-1,-1,-1,-1,-1],"loss_changes":[3.8749165E1,1.7455809E1,7.603487E0,9.21063E0,2.6228924E0,2.2879906E0,6.871355E0,1.2262337E0,3.008016E0,7.82135E-1,3.6394832E0,4.480667E-1,1.0493088E-1,3.8761775E0,2.7989168E0,0E0,0E0,0E0,0E0,0E0,0E0,0E0,0E0,0E0,0E0,0E0,0E0,0E0,0E0,0E0,0E0],"parents":[2147483647,0,0,1,1,2,2,3,3,4,4,5,5,6,6,7,7,8,8,9,9,10,10,11,11,12,12,13,13,14,14],"right_children":[2,4,6,8,10,12,14,16,18,20,22,24,26,28,30,-1,-1,-1,-1,-1,-1,-1,-1,-1,-1,-1,-1,-1,-1,-1,-1],"split_conditions":[7.75707E-1,1E0,1E0,-3.5165328E-1,3.75E-1,1.6383966E0,7.5609756E-1,1E0,7.317073E-2,6.919686E-1,3.1063905E-2,2.5E-1,1.0849332E0,5E-1,6.25E-1,-2.1849088E-2,-5.449238E-3,3.0039886E-3,2.105975E-2,-2.0075172E-2,-2.8443914E-2,-2.0098887E-2,9.183528E-3,2.8574828E-2,4.4220075E-2,7.185666E-2,5.4414853E-2,-1.2477214E-2,2.027126E-2,3.238953E-2,8.410238E-2],"split_indices":[5,1,1,5,2,5,7,0,7,8,5,2,4,2,2,0,0,0,0,0,0,0,0,0,0,0,0,0,0,0,0],"split_type":[0,0,0,0,0,0,0,0,0,0,0,0,0,0,0,0,0,0,0,0,0,0,0,0,0,0,0,0,0,0,0],"sum_hessian":[2.35E2,1.85E2,5E1,8.2E1,1.03E2,2E1,3E1,2.7E1,5.5E1,7.7E1,2.6E1,1.3E1,7E0,2.1E1,9E0,1.4E1,1.3E1,2.4E1,3.1E1,5.1E1,2.6E1,1.6E1,1E1,6E0,7E0,4E0,3E0,1E1,1.1E1,7E0,2E0],"tree_param":{"num_deleted":"0","num_feature":"9","num_nodes":"31","size_leaf_vector":"1"}},{"base_weights":[2.3812063E-2,-2.9221505E-1,5.54037E-1,-4.555351E-2,-5.106827E-1,1.0375676E0,2.1522836E-1,-2.4632752E-1,4.6464288E-1,-2.6320327E-2,-4.542002E-1,8.885465E-1,1.6585994E0,-2.3386136E-1,7.1812725E-1,-2.2416217E-2,-3.9436296E-3,8.731928E-3,2.6590087E-2,-1.9807488E-2,-1.0365281E-2,2.423025E-2,4.347564E-2,5.4052506E-2,6.9158405E-2,-2.9269746E-2,2.394084E-3,1.3511986E-2,4.8030954E-2],"categories":[],"categories_nodes":[],"categories_segments":[],"categories_sizes":[],"default_left":[0,0,0,0,0,0,0,0,0,0,0,0,0,0,0,0,0,0,0,0,0,0,0,0,0,0,0,0,0],"id":35,"left_children":[1,3,5,7,9,11,13,15,17,-1,19,21,23,25,27,-1,-1,-1,-1,-1,-1,-1,-1,-1,-1,-1,-1,-1,-1],"loss_changes":[4.0410942E1,8.12976E0,1.4718777E1,7.2844276E0,7.6404953E-1,3.28368E0,1.2005853E1,2.4713829E0,1.0688663E0,0E0,6.9340515E-1,1.8257504E0,2.5812149E-2,4.4441504E0,4.865488E0,0E0,0E0,0E0,0E0,0E0,0E0,0E0,0E0,0E0,0E0,0E0,0E0,0E0,0E0],"parents":[2147483647,0,0,1,1,2,2,3,3,4,4,5,5,6,6,7,7,8,8,10,10,11,11,12,12,13,13,14,14],"right_children":[2,4,6,8,10,12,14,16,18,-1,20,22,24,26,28,-1,-1,-1,-1,-1,-1,-1,-1,-1,-1,-1,-1,-1,-1],"split_conditions":[4.1644022E-1,1E0,1E0,1.17135905E-1,6.504065E-2,1.6383966E0,3.75E-1,-9.331952E-1,2.5E-1,-2.6320327E-2,3.75E-1,2.5E-1,1E0,3.9644656E-1,1.8699187E-1,-2.2416217E-2,-3.9436296E-3,8.731928E-3,2.6590087E-2,-1.9807488E-2,-1.0365281E-2,2.423025E-2,4.347564E-2,5.4052506E-2,6.9158405E-2,-2.9269746E-2,2.394084E-3,1.3511986E-2,4.8030954E-2],"split_indices":[5,1,1,3,7,5,2,5,2,0,2,2,7,6,7,0,0,0,0,0,0,0,0,0,0,0,0,0,0],"split_type":[0,0,0,0,0,0,0,0,0,0,0,0,0,0,0,0,0,0,0,0,0,0,0,0,0,0,0,0,0],"sum_hessian":[2.41E2,1.51E2,9E1,7.1E1,8E1,3.7E1,5.3E1,5.1E1,2E1,1.9E1,6.1E1,3E1,7E0,2.8E1,2.5E1,1.5E1,3.6E1,1E1,1E1,4.5E1,1.6E1,1.5E1,1.5E1,3E0,4E0,1E1,1.8E1,1.5E1,1E1],"tree_param":{"num_deleted":"0","num_feature":"9","num_nodes":"29","size_leaf_vector":"1"}},{"base_weights":[-2.0200212E-2,-2.6837993E-1,4.5215017E-1,6.518365E-3,-5.109406E-1,9.164785E-1,1.1930134E-1,-3.901387E-1,2.4341498E-1,-5.516184E-1,2.2046734E-2,5.989128E-1,1.1008499E0,-1.0643237E-1,8.9634824E-1,-2.035633E-2,-8.496674E-3,1.7215246E-3,1.8618505E-2,-2.5425728E-2,-1.6566193E-2,1.8353442E-2,-7.920345E-3,1.9355506E-2,3.019807E-2,3.9068036E-2,5.9512958E-2,-1.8270263E-2,1.1688134E-2,2.1672776E-2,5.5349667E-2],"categories":[],"categories_nodes":[],"categories_segments":[],"categories_sizes":[],"default_left":[0,0,0,0,0,0,0,0,0,0,0,0,0,0,0,0,0,0,0,0,0,0,0,0,0,0,0,0,0,0,0],"id":36,"left_children":[1,3,5,7,9,11,13,15,17,19,21,23,25,27,29,-1,-1,-1,-1,-1,-1,-1,-1,-1,-1,-1,-1,-1,-1,-1,-1],"loss_changes":[2.8617296E1,1.06822E1,1.2967941E1,7.0583444E0,1.8542194E0,1.9780941E0,8.627357E0,6.5034914E-1,2.2659795E0,1.023243E0,6.4955986E-1,1.8088436E-1,6.3469887E-1,5.8474226E0,1.9199696E0,0E0,0E0,0E0,0E0,0E0,0E0,0E0,0E0,0E0,0E0,0E0,0E0,0E0,0E0,0E0,0E0],"parents":[2147483647,0,0,1,1,2,2,3,3,4,4,5,5,6,6,7,7,8,8,9,9,10,10,11,11,12,12,13,13,14,14],"right_children":[2,4,6,8,10,12,14,16,18,20,22,24,26,28,30,-1,-1,-1,-1,-1,-1,-1,-1,-1,-1,-1,-1,-1,-1,-1,-1],"split_conditions":[4.1759855E-1,1E0,1E0,-3.5165328E-1,6.25E-1,7.75707E-1,1E0,1E0,2.5E-1,8.130081E-2,1E0,2.5E-1,8.75E-1,3.75E-1,5E-1,-2.035633E-2,-8.496674E-3,1.7215246E-3,1.8618505E-2,-2.5425728E-2,-1.6566193E-2,1.8353442E-2,-7.920345E-3,1.9355506E-2,3.019807E-2,3.9068036E-2,5.9512958E-2,-1.8270263E-2,1.1688134E-2,2.1672776E-2,5.5349667E-2],"split_indices":[5,1,1,5,2,5,7,0,2,7,2,2,2,2,2,0,0,0,0,0,0,0,0,0,0,0,0,0,0,0,0],"split_type":[0,0,0,0,0,0,0,0,0,0,0,0,0,0,0,0,0,0,0,0,0,0,0,0,0,0,0,0,0,0,0],"sum_hessian":[2.44E2,1.6E2,8.4E1,7.5E1,8.5E1,3.5E1,4.9E1,2.8E1,4.7E1,7.9E1,6E0,1.3E1,2.2E1,3.8E1,1.1E1,1.5E1,1.3E1,2.6E1,2.1E1,4E1,3.9E1,2E0,4E0,9E0,4E0,1.9E1,3E0,2E1,1.8E1,7E0,4E0],"tree_param":{"num_deleted":"0","num_feature":"9","num_nodes":"31","size_leaf_vector":"1"}},{"base_weights":[-1.673057E-2,-2.753023E-1,4.9666542E-1,-2.368363E-2,-4.7159675E-1,9.936751E-1,1.8467982E-1,-4.373187E-1,2.8369194E-1,-6.5874285E-1,-4.1484573E-1,8.5142326E-1,1.5433888E0,-1.9549699E-1,6.339359E-1,-2.7622527E-2,-1.16890175E-2,4.953008E-3,1.837014E-2,-2.3948384E-2,-3.468516E-2,-1.6961418E-2,-4.405009E-3,2.08928E-2,4.0658936E-2,5.0151546E-2,6.623743E-2,-2.7049182E-2,4.7909315E-3,3.2407835E-3,4.9141597E-2],"categories":[],"categories_nodes":[],"categories_segments":[],"categories_sizes":[],"default_left":[0,0,0,0,0,0,0,0,0,0,0,0,0,0,0,0,0,0,0,0,0,0,0,0,0,0,0,0,0,0,0],"id":37,"left_children":[1,3,5,7,9,11,13,15,17,19,21,23,25,27,29,-1,-1,-1,-1,-1,-1,-1,-1,-1,-1,-1,-1,-1,-1,-1,-1],"loss_changes":[3.0945936E1,7.6499653E0,1.2072706E1,8.66593E0,8.8729477E-1,2.2182064E0,8.226458E0,1.0579295E0,1.1714146E0,9.393692E-2,5.700302E-1,1.4907551E0,5.434227E-2,4.302163E0,7.871771E0,0E0,0E0,0E0,0E0,0E0,0E0,0E0,0E0,0E0,0E0,0E0,0E0,0E0,0E0,0E0,0E0],"parents":[2147483647,0,0,1,1,2,2,3,3,4,4,5,5,6,6,7,7,8,8,9,9,10,10,11,11,12,12,13,13,14,14],"right_children":[2,4,6,8,10,12,14,16,18,20,22,24,26,28,30,-1,-1,-1,-1,-1,-1,-1,-1,-1,-1,-1,-1,-1,-1,-1,-1],"split_conditions":[4.1759855E-1,1E0,1E0,-3.9573136E-1,6.504065E-2,1.6383966E0,3.75E-1,-1.1074535E0,1E0,1.17135905E-1,1E0,2.5E-1,1E0,3.9644656E-1,1.8699187E-1,-2.7622527E-2,-1.16890175E-2,4.953008E-3,1.837014E-2,-2.3948384E-2,-3.468516E-2,-1.6961418E-2,-4.405009E-3,2.08928E-2,4.0658936E-2,5.0151546E-2,6.623743E-2,-2.7049182E-2,4.7909315E-3,3.2407835E-3,4.9141597E-2],"split_indices":[5,1,1,5,7,5,2,5,0,3,7,2,7,6,7,0,0,0,0,0,0,0,0,0,0,0,0,0,0,0,0],"split_type":[0,0,0,0,0,0,0,0,0,0,0,0,0,0,0,0,0,0,0,0,0,0,0,0,0,0,0,0,0,0,0],"sum_hessian":[2.33E2,1.55E2,7.8E1,6.8E1,8.7E1,3E1,4.8E1,2.9E1,3.9E1,2E1,6.7E1,2.4E1,6E0,2.6E1,2.2E1,9E0,2E1,2.2E1,1.7E1,1.8E1,2E0,6.1E1,6E0,1E1,1.4E1,3E0,3E0,1E1,1.6E1,1.2E1,1E1],"tree_param":{"num_deleted":"0","num_feature":"9","num_nodes":"31","size_leaf_vector":"1"}},{"base_weights":[-4.6589035E-3,-2.021274E-1,5.968682E-1,5.4394096E-2,-4.246723E-1,1.0751238E0,2.7608278E-1,-3.8395086E-1,2.5896138E-1,-2.3945607E-2,-3.654591E-1,9.155713E-1,1.4472145E0,-1.8130815E-2,8.6258054E-1,-2.2756E-2,-1.0520913E-2,2.5209826E-3,1.7747827E-2,-1.8592041E-2,-1.0909845E-2,2.9510744E-2,4.075493E-2,4.780153E-2,6.3764445E-2,1.5260132E-2,-1.9581892E-2,1.6438358E-2,4.0927224E-2],"categories":[],"categories_nodes":[],"categories_segments":[],"categories_sizes":[],"default_left":[0,0,0,0,0,0,0,0,0,0,0,0,0,0,0,0,0,0,0,0,0,0,0,0,0,0,0,0,0],"id":38,"left_children":[1,3,5,7,9,11,13,15,17,-1,19,21,23,25,27,-1,-1,-1,-1,-1,-1,-1,-1,-1,-1,-1,-1,-1,-1],"loss_changes":[2.8874386E1,1.045895E1,9.172049E0,7.633259E0,1.1398735E0,1.2955475E0,6.2395782E0,5.957856E-1,2.2917283E0,0E0,7.135811E-1,2.8002357E-1,1.1066532E-1,4.983635E0,1.0300627E0,0E0,0E0,0E0,0E0,0E0,0E0,0E0,0E0,0E0,0E0,0E0,0E0,0E0,0E0],"parents":[2147483647,0,0,1,1,2,2,3,3,4,4,5,5,6,6,7,7,8,8,10,10,11,11,12,12,13,13,14,14],"right_children":[2,4,6,8,10,12,14,16,18,-1,20,22,24,26,28,-1,-1,-1,-1,-1,-1,-1,-1,-1,-1,-1,-1,-1,-1],"split_conditions":[7.75707E-1,1E0,1E0,-3.9573136E-1,6.504065E-2,1.6383966E0,7.5609756E-1,-1.1074535E0,3.1063905E-2,-2.3945607E-2,1.8829411E-1,1E0,1E0,1E0,1E0,-2.2756E-2,-1.0520913E-2,2.5209826E-3,1.7747827E-2,-1.8592041E-2,-1.0909845E-2,2.9510744E-2,4.075493E-2,4.780153E-2,6.3764445E-2,1.5260132E-2,-1.9581892E-2,1.6438358E-2,4.0927224E-2],"split_indices":[5,1,1,5,7,5,7,5,5,0,8,0,7,0,0,0,0,0,0,0,0,0,0,0,0,0,0,0,0],"split_type":[0,0,0,0,0,0,0,0,0,0,0,0,0,0,0,0,0,0,0,0,0,0,0,0,0,0,0,0,0],"sum_hessian":[2.43E2,1.83E2,6E1,8.5E1,9.8E1,2.4E1,3.6E1,2.7E1,5.8E1,2.2E1,7.6E1,1.7E1,7E0,2.4E1,1.2E1,9E0,1.8E1,3E1,2.8E1,3E1,4.6E1,9E0,8E0,4E0,3E0,1.3E1,1.1E1,4E0,8E0],"tree_param":{"num_deleted":"0","num_feature":"9","num_nodes":"29","size_leaf_vector":"1"}},{"base_weights":[-2.8836062E-2,-2.4488416E-1,4.2327073E-1,-3.38742E-1,-5.844117E-2,1.814457E-1,8.947283E-1,-4.323384E-1,-2.0725507E-1,-2.0821522E-1,1.2972952E-1,-1.7026684E-1,5.192944E-1,1.1480092E0,-1.16931535E-1,-1.9604718E-2,-1.3376749E-2,1.3973449E-2,-9.0256855E-3,-9.477072E-3,-1.9786071E-3,-4.857918E-3,1.3984069E-2,-1.7978592E-2,-1.6898466E-3,1.4043036E-2,2.595537E-2,3.2024417E-2,6.111972E-2,4.220947E-2,-3.605232E-2],"categories":[],"categories_nodes":[],"categories_segments":[],"categories_sizes":[],"default_left":[0,0,0,0,0,0,0,0,0,0,0,0,0,0,0,0,0,0,0,0,0,0,0,0,0,0,0,0,0,0,0],"id":39,"left_children":[1,3,5,7,9,11,13,15,17,19,21,23,25,27,29,-1,-1,-1,-1,-1,-1,-1,-1,-1,-1,-1,-1,-1,-1,-1,-1],"loss_changes":[2.237917E1,2.7054777E0,8.415122E0,1.2513065E0,1.4707428E0,5.8429832E0,6.4508553E0,3.715887E-1,7.1803653E-1,1.74981E-1,1.4071438E0,9.006702E-1,5.733385E-1,2.6726112E0,5.1901045E0,0E0,0E0,0E0,0E0,0E0,0E0,0E0,0E0,0E0,0E0,0E0,0E0,0E0,0E0,0E0,0E0],"parents":[2147483647,0,0,1,1,2,2,3,3,4,4,5,5,6,6,7,7,8,8,9,9,10,10,11,11,12,12,13,13,14,14],"right_children":[2,4,6,8,10,12,14,16,18,20,22,24,26,28,30,-1,-1,-1,-1,-1,-1,-1,-1,-1,-1,-1,-1,-1,-1,-1,-1],"split_conditions":[4.5963594E-1,2.5E-1,5E-1,3.4562606E-1,-7.490255E-2,6.085289E-1,1.5562319E0,1E0,-3.0932656E-1,6.25E-1,1E0,1.25E-1,1E0,7.5E-1,1E0,-1.9604718E-2,-1.3376749E-2,1.3973449E-2,-9.0256855E-3,-9.477072E-3,-1.9786071E-3,-4.857918E-3,1.3984069E-2,-1.7978592E-2,-1.6898466E-3,1.4043036E-2,2.595537E-2,3.2024417E-2,6.111972E-2,4.220947E-2,-3.605232E-2],"split_indices":[5,2,2,6,3,3,3,0,3,2,0,2,0,2,0,0,0,0,0,0,0,0,0,0,0,0,0,0,0,0,0],"split_type":[0,0,0,0,0,0,0,0,0,0,0,0,0,0,0,0,0,0,0,0,0,0,0,0,0,0,0,0,0,0,0],"sum_hessian":[2.29E2,1.55E2,7.4E1,1.03E2,5.2E1,4.9E1,2.5E1,6E1,4.3E1,2.9E1,2.3E1,2.4E1,2.5E1,2E1,5E0,3E1,3E1,2E0,4.1E1,2.3E1,6E0,1.1E1,1.2E1,7E0,1.7E1,1.3E1,1.2E1,1.2E1,8E0,2E0,3E0],"tree_param":{"num_deleted":"0","num_feature":"9","num_nodes":"31","size_leaf_vector":"1"}},{"base_weights":[4.048328E-2,-1.7575975E-1,7.274857E-1,7.175256E-2,-3.778896E-1,4.554601E-1,1.3460919E0,-4.9750385E-1,2.1472201E-1,-4.438622E-1,-2.0307598E-1,1.0663339E0,-1.771064E-2,1.8446025E0,8.9020634E-1,-2.305097E-2,-1.1981593E-2,2.1843072E-3,1.887037E-2,-1.959676E-2,-9.119042E-3,-1.5717424E-2,3.7821138E-3,2.960016E-2,5.284005E-2,-1.340384E-2,2.14379E-2,5.427425E-2,1.1530879E-1,5.408696E-2,8.2687335E-3],"categories":[],"categories_nodes":[],"categories_segments":[],"categories_sizes":[],"default_left":[0,0,0,0,0,0,0,0,0,0,0,0,0,0,0,0,0,0,0,0,0,0,0,0,0,0,0,0,0,0,0],"id":40,"left_children":[1,3,5,7,9,11,13,15,17,19,21,23,25,27,29,-1,-1,-1,-1,-1,-1,-1,-1,-1,-1,-1,-1,-1,-1,-1,-1],"loss_changes":[3.4791763E1,8.915897E0,9.36161E0,6.5193877E0,1.1137247E0,1.1312334E1,3.7173786E0,2.8367496E-1,2.8061962E0,9.8459244E-1,1.7108471E0,1.4637794E0,4.2643776E0,3.6389542E0,3.160781E0,0E0,0E0,0E0,0E0,0E0,0E0,0E0,0E0,0E0,0E0,0E0,0E0,0E0,0E0,0E0,0E0],"parents":[2147483647,0,0,1,1,2,2,3,3,4,4,5,5,6,6,7,7,8,8,9,9,10,10,11,11,12,12,13,13,14,14],"right_children":[2,4,6,8,10,12,14,16,18,20,22,24,26,28,30,-1,-1,-1,-1,-1,-1,-1,-1,-1,-1,-1,-1,-1,-1,-1,-1],"split_conditions":[6.136244E-1,1E0,6.25E-1,-9.006819E-1,3.75E-1,1E0,8.75E-1,1E0,2.5E-1,1.8699187E-1,3.1063905E-2,1.6383966E0,7.5609756E-1,5.9420437E-1,1.5562319E0,-2.305097E-2,-1.1981593E-2,2.1843072E-3,1.887037E-2,-1.959676E-2,-9.119042E-3,-1.5717424E-2,3.7821138E-3,2.960016E-2,5.284005E-2,-1.340384E-2,2.14379E-2,5.427425E-2,1.1530879E-1,5.408696E-2,8.2687335E-3],"split_indices":[5,1,2,5,2,1,2,0,2,7,5,5,7,3,3,0,0,0,0,0,0,0,0,0,0,0,0,0,0,0,0],"split_type":[0,0,0,0,0,0,0,0,0,0,0,0,0,0,0,0,0,0,0,0,0,0,0,0,0,0,0,0,0,0,0],"sum_hessian":[2.34E2,1.78E2,5.6E1,8E1,9.8E1,3.9E1,1.7E1,1.6E1,6.4E1,7.1E1,2.7E1,1.7E1,2.2E1,8E0,9E0,1E1,6E0,4.1E1,2.3E1,5.3E1,1.8E1,1.6E1,1.1E1,9E0,8E0,1.4E1,8E0,6E0,2E0,5E0,4E0],"tree_param":{"num_deleted":"0","num_feature":"9","num_nodes":"31","size_leaf_vector":"1"}},{"base_weights":[9.58259E-3,-2.0937143E-1,4.1146713E-1,-3.2913205E-3,-3.9497715E-1,8.456577E-1,5.9318468E-2,-2.7952123E-1,3.0396795E-1,-4.2832208E-1,-3.4606203E-2,5.166737E-1,1.014119E0,-1.743695E-1,6.694409E-1,-1.3749827E-2,3.251977E-3,5.436542E-3,2.1936849E-2,-1.7465306E-2,-5.5426313E-3,1.0653162E-2,-1.7378505E-2,1.2775074E-2,2.3868965E-2,3.4636274E-2,4.8793916E-2,-1.3669929E-2,4.6186657E-3,4.1905134E-3,5.0091807E-2],"categories":[],"categories_nodes":[],"categories_segments":[],"categories_sizes":[],"default_left":[0,0,0,0,0,0,0,0,0,0,0,0,0,0,0,0,0,0,0,0,0,0,0,0,0,0,0,0,0,0,0],"id":41,"left_children":[1,3,5,7,9,11,13,15,17,19,21,23,25,27,29,-1,-1,-1,-1,-1,-1,-1,-1,-1,-1,-1,-1,-1,-1,-1,-1],"loss_changes":[2.1222317E1,5.9628053E0,1.2988388E1,6.2922554E0,9.773197E-1,2.0470276E0,6.7278533E0,1.1507828E0,1.5138128E0,5.961199E-1,9.4296676E-1,2.263546E-1,5.9101677E-1,1.8514733E0,4.6588397E0,0E0,0E0,0E0,0E0,0E0,0E0,0E0,0E0,0E0,0E0,0E0,0E0,0E0,0E0,0E0,0E0],"parents":[2147483647,0,0,1,1,2,2,3,3,4,4,5,5,6,6,7,7,8,8,9,9,10,10,11,11,12,12,13,13,14,14],"right_children":[2,4,6,8,10,12,14,16,18,20,22,24,26,28,30,-1,-1,-1,-1,-1,-1,-1,-1,-1,-1,-1,-1,-1,-1,-1,-1],"split_conditions":[4.1759855E-1,1E0,1E0,-2.770517E-1,6.25E-1,7.75707E-1,1.9096575E0,2.5E-1,2.5E-1,1E0,1E0,1E0,1.6383966E0,3.75E-1,3.75E-1,-1.3749827E-2,3.251977E-3,5.436542E-3,2.1936849E-2,-1.7465306E-2,-5.5426313E-3,1.0653162E-2,-1.7378505E-2,1.2775074E-2,2.3868965E-2,3.4636274E-2,4.8793916E-2,-1.3669929E-2,4.6186657E-3,4.1905134E-3,5.0091807E-2],"split_indices":[5,1,1,5,2,5,5,2,2,7,0,0,5,2,2,0,0,0,0,0,0,0,0,0,0,0,0,0,0,0,0],"split_type":[0,0,0,0,0,0,0,0,0,0,0,0,0,0,0,0,0,0,0,0,0,0,0,0,0,0,0,0,0,0,0],"sum_hessian":[2.41E2,1.56E2,8.5E1,7.4E1,8.2E1,3.8E1,4.7E1,3.9E1,3.5E1,7.5E1,7E0,1.3E1,2.5E1,3.4E1,1.3E1,3.2E1,7E0,2.2E1,1.3E1,6.8E1,7E0,4E0,3E0,5E0,8E0,1.8E1,7E0,2.1E1,1.3E1,7E0,6E0],"tree_param":{"num_deleted":"0","num_feature":"9","num_nodes":"31","size_leaf_vector":"1"}},{"base_weights":[1.7883748E-2,-2.2889768E-1,4.7741547E-1,-0E0,-4.1651893E-1,3.4710115E-1,1.0972484E0,-3.2874343E-1,2.1689644E-1,-4.7504774E-1,-3.1092098E-1,7.289683E-1,4.043936E-2,2.147738E0,7.0247245E-1,-2.1848524E-2,-8.289035E-3,4.485565E-3,2.513126E-2,-1.7330796E-2,-3.200228E-2,-2.0448714E-2,-7.309265E-3,2.0661363E-2,4.899027E-2,-2.7853544E-3,2.1876905E-2,4.3948244E-2,1.17085695E-1,4.9392164E-2,-3.9803504E-4],"categories":[],"categories_nodes":[],"categories_segments":[],"categories_sizes":[],"default_left":[0,0,0,0,0,0,0,0,0,0,0,0,0,0,0,0,0,0,0,0,0,0,0,0,0,0,0,0,0,0,0],"id":42,"left_children":[1,3,5,7,9,11,13,15,17,19,21,23,25,27,29,-1,-1,-1,-1,-1,-1,-1,-1,-1,-1,-1,-1,-1,-1,-1,-1],"loss_changes":[2.8257483E1,6.9611235E0,6.981634E0,5.2149744E0,5.2677345E-1,8.424644E0,6.095186E0,7.678993E-1,1.9144564E0,3.963461E-1,8.407612E-1,3.259739E0,2.4276006E0,3.401144E0,4.679626E0,0E0,0E0,0E0,0E0,0E0,0E0,0E0,0E0,0E0,0E0,0E0,0E0,0E0,0E0,0E0,0E0],"parents":[2147483647,0,0,1,1,2,2,3,3,4,4,5,5,6,6,7,7,8,8,9,9,10,10,11,11,12,12,13,13,14,14],"right_children":[2,4,6,8,10,12,14,16,18,20,22,24,26,28,30,-1,-1,-1,-1,-1,-1,-1,-1,-1,-1,-1,-1,-1,-1,-1,-1],"split_conditions":[4.1759855E-1,1E0,7.5E-1,-3.5165328E-1,2.5E-1,1E0,8.75E-1,-1.1074535E0,3.75E-1,4.968406E-1,6.504065E-2,1.6383966E0,1E0,1E0,1.5562319E0,-2.1848524E-2,-8.289035E-3,4.485565E-3,2.513126E-2,-1.7330796E-2,-3.200228E-2,-2.0448714E-2,-7.309265E-3,2.0661363E-2,4.899027E-2,-2.7853544E-3,2.1876905E-2,4.3948244E-2,1.17085695E-1,4.9392164E-2,-3.9803504E-4],"split_indices":[5,1,2,5,2,1,2,5,2,6,7,5,7,1,3,0,0,0,0,0,0,0,0,0,0,0,0,0,0,0,0],"split_type":[0,0,0,0,0,0,0,0,0,0,0,0,0,0,0,0,0,0,0,0,0,0,0,0,0,0,0,0,0,0,0],"sum_hessian":[2.49E2,1.62E2,8.7E1,7.3E1,8.9E1,7.2E1,1.5E1,2.9E1,4.4E1,5.7E1,3.2E1,3.2E1,4E1,4E0,1.1E1,9E0,2E1,3.6E1,8E0,5.4E1,3E0,1.1E1,2.1E1,2.4E1,8E0,3.3E1,7E0,2E0,2E0,6E0,5E0],"tree_param":{"num_deleted":"0","num_feature":"9","num_nodes":"31","size_leaf_vector":"1"}},{"base_weights":[-7.539008E-3,-2.247393E-1,4.041984E-1,1.1438533E-2,-3.998522E-1,7.8666484E-1,9.171687E-2,-3.4694874E-1,1.6688855E-1,-4.2545727E-1,-1.4974044E-1,4.0392208E-1,1.01005E0,-2.4060029E-1,5.5334324E-1,-2.3411037E-2,-9.486596E-3,-2.7309095E-3,1.1105874E-2,-2.0736385E-2,-1.4651508E-2,-1.4940654E-2,3.4368087E-3,2.3274215E-2,1.0294723E-2,3.578887E-2,5.493944E-2,-2.5712274E-2,1.8440126E-3,3.430402E-2,7.749831E-3],"categories":[],"categories_nodes":[],"categories_segments":[],"categories_sizes":[],"default_left":[0,0,0,0,0,0,0,0,0,0,0,0,0,0,0,0,0,0,0,0,0,0,0,0,0,0,0,0,0,0,0],"id":43,"left_children":[1,3,5,7,9,11,13,15,17,19,21,23,25,27,29,-1,-1,-1,-1,-1,-1,-1,-1,-1,-1,-1,-1,-1,-1,-1,-1],"loss_changes":[2.022074E1,6.1307693E0,9.310532E0,3.5147767E0,5.3056717E-1,2.945776E0,6.6219807E0,4.7476816E-1,1.3050287E0,3.493557E-1,4.742278E-1,3.3423924E-1,5.584202E-1,3.1432776E0,2.1498666E0,0E0,0E0,0E0,0E0,0E0,0E0,0E0,0E0,0E0,0E0,0E0,0E0,0E0,0E0,0E0,0E0],"parents":[2147483647,0,0,1,1,2,2,3,3,4,4,5,5,6,6,7,7,8,8,9,9,10,10,11,11,12,12,13,13,14,14],"right_children":[2,4,6,8,10,12,14,16,18,20,22,24,26,28,30,-1,-1,-1,-1,-1,-1,-1,-1,-1,-1,-1,-1,-1,-1,-1,-1],"split_conditions":[4.1644022E-1,1E0,1E0,-7.1225E-1,1E0,7.75707E-1,3.75E-1,-1.3079655E0,1.25E-1,6.504065E-2,1.25E-1,5.821635E-1,1E0,3.9644656E-1,1E0,-2.3411037E-2,-9.486596E-3,-2.7309095E-3,1.1105874E-2,-2.0736385E-2,-1.4651508E-2,-1.4940654E-2,3.4368087E-3,2.3274215E-2,1.0294723E-2,3.578887E-2,5.493944E-2,-2.5712274E-2,1.8440126E-3,3.430402E-2,7.749831E-3],"split_indices":[5,1,1,5,7,5,2,5,2,7,2,3,7,6,0,0,0,0,0,0,0,0,0,0,0,0,0,0,0,0,0],"split_type":[0,0,0,0,0,0,0,0,0,0,0,0,0,0,0,0,0,0,0,0,0,0,0,0,0,0,0,0,0,0,0],"sum_hessian":[2.26E2,1.48E2,7.8E1,6.3E1,8.5E1,3.5E1,4.3E1,1.9E1,4.4E1,7.7E1,8E0,1.3E1,2.2E1,2.5E1,1.8E1,5E0,1.4E1,1.5E1,2.9E1,2E1,5.7E1,4E0,4E0,5E0,8E0,1.9E1,3E0,1E1,1.5E1,9E0,9E0],"tree_param":{"num_deleted":"0","num_feature":"9","num_nodes":"31","size_leaf_vector":"1"}},{"base_weights":[-1.6206512E-2,-2.0783502E-1,3.3557227E-1,8.8862805E-3,-3.7969264E-1,7.0098716E-1,7.7978656E-2,-1.3327976E-1,4.1018048E-1,-1.4503913E-1,-4.2755452E-1,6.1620677E-1,1.290156E0,-1.5990537E-1,9.5478654E-1,-1.1111686E-2,2.6258982E-3,4.8043793E-3,2.5152339E-2,3.1820384E-3,-1.0447641E-2,-1.8154522E-2,-1.0798291E-2,1.7341344E-2,3.946274E-2,3.4151517E-2,6.245751E-2,1.23716155E-2,-7.782435E-3,2.5872534E-2,5.9873823E-2],"categories":[],"categories_nodes":[],"categories_segments":[],"categories_sizes":[],"default_left":[0,0,0,0,0,0,0,0,0,0,0,0,0,0,0,0,0,0,0,0,0,0,0,0,0,0,0,0,0,0,0],"id":44,"left_children":[1,3,5,7,9,11,13,15,17,19,21,23,25,27,29,-1,-1,-1,-1,-1,-1,-1,-1,-1,-1,-1,-1,-1,-1,-1,-1],"loss_changes":[1.53097725E1,5.484191E0,7.5198736E0,3.7208457E0,9.0765953E-1,1.5635128E0,9.842136E0,1.5345584E0,1.1852973E0,4.172004E-1,4.467907E-1,1.9080687E0,4.0976715E-1,7.871238E-1,1.5990019E0,0E0,0E0,0E0,0E0,0E0,0E0,0E0,0E0,0E0,0E0,0E0,0E0,0E0,0E0,0E0,0E0],"parents":[2147483647,0,0,1,1,2,2,3,3,4,4,5,5,6,6,7,7,8,8,9,9,10,10,11,11,12,12,13,13,14,14],"right_children":[2,4,6,8,10,12,14,16,18,20,22,24,26,28,30,-1,-1,-1,-1,-1,-1,-1,-1,-1,-1,-1,-1,-1,-1,-1,-1],"split_conditions":[2.9636008E-1,1E0,1E0,1.17135905E-1,-9.409499E-1,7.5E-1,1E0,1E0,2.5E-1,1E0,1.0569106E-1,1.3166258E0,1E0,3.156931E-1,6.25E-1,-1.1111686E-2,2.6258982E-3,4.8043793E-3,2.5152339E-2,3.1820384E-3,-1.0447641E-2,-1.8154522E-2,-1.0798291E-2,1.7341344E-2,3.946274E-2,3.4151517E-2,6.245751E-2,1.23716155E-2,-7.782435E-3,2.5872534E-2,5.9873823E-2],"split_indices":[3,1,1,3,4,2,7,0,2,0,7,3,0,3,2,0,0,0,0,0,0,0,0,0,0,0,0,0,0,0,0],"split_type":[0,0,0,0,0,0,0,0,0,0,0,0,0,0,0,0,0,0,0,0,0,0,0,0,0,0,0,0,0,0,0],"sum_hessian":[2.27E2,1.47E2,8E1,6.5E1,8.2E1,3.3E1,4.7E1,4.8E1,1.7E1,1.4E1,6.8E1,2.9E1,4E0,3.7E1,1E1,2.7E1,2.1E1,8E0,9E0,5E0,9E0,5.1E1,1.7E1,2.1E1,8E0,2E0,2E0,3E0,3.4E1,7E0,3E0],"tree_param":{"num_deleted":"0","num_feature":"9","num_nodes":"31","size_leaf_vector":"1"}},{"base_weights":[3.239358E-2,-1.4569408E-1,5.891031E-1,8.979264E-2,-3.1535754E-1,9.44609E-1,3.6752784E-1,-1.9497918E-1,3.4492248E-1,-1.919267E-2,-2.7647904E-1,8.51324E-1,5.0260875E-2,1.7117444E-1,3.1815805E-2,-1.3082932E-2,1.6194967E-3,1.3946688E-3,1.5811734E-2,-1.53042935E-2,-7.407064E-3,2.3207624E-2,3.7378527E-2,1.8073991E-2,-1.700064E-3],"categories":[],"categories_nodes":[],"categories_segments":[],"categories_sizes":[],"default_left":[0,0,0,0,0,0,0,0,0,0,0,0,0,0,0,0,0,0,0,0,0,0,0,0,0],"id":45,"left_children":[1,3,5,7,9,11,13,15,17,-1,19,21,-1,23,-1,-1,-1,-1,-1,-1,-1,-1,-1,-1,-1],"loss_changes":[2.2526037E1,6.8806353E0,4.2912674E0,5.2434807E0,7.0416737E-1,6.1292076E-1,3.0841856E0,1.1980529E0,7.998376E-1,0E0,8.358865E-1,4.5957184E-1,0E0,1.575469E0,0E0,0E0,0E0,0E0,0E0,0E0,0E0,0E0,0E0,0E0,0E0],"parents":[2147483647,0,0,1,1,2,2,3,3,4,4,5,5,6,6,7,7,8,8,10,10,11,11,13,13],"right_children":[2,4,6,8,10,12,14,16,18,-1,20,22,-1,24,-1,-1,-1,-1,-1,-1,-1,-1,-1,-1,-1],"split_conditions":[7.75707E-1,1E0,1E0,-1.4394331E-1,6.504065E-2,7.5609756E-1,1E0,1E0,6.504065E-2,-1.919267E-2,2.3882541E-1,1E0,5.0260875E-2,1E0,3.1815805E-2,-1.3082932E-2,1.6194967E-3,1.3946688E-3,1.5811734E-2,-1.53042935E-2,-7.407064E-3,2.3207624E-2,3.7378527E-2,1.8073991E-2,-1.700064E-3],"split_indices":[5,1,1,5,7,7,7,0,7,0,8,0,0,0,0,0,0,0,0,0,0,0,0,0,0],"split_type":[0,0,0,0,0,0,0,0,0,0,0,0,0,0,0,0,0,0,0,0,0,0,0,0,0],"sum_hessian":[2.27E2,1.72E2,5.5E1,7.2E1,1E2,2.1E1,3.4E1,3.4E1,3.8E1,1.7E1,8.3E1,1.7E1,4E0,2.4E1,1E1,2.1E1,1.3E1,7E0,3.1E1,3.3E1,5E1,6E0,1.1E1,1E1,1.4E1],"tree_param":{"num_deleted":"0","num_feature":"9","num_nodes":"25","size_leaf_vector":"1"}},{"base_weights":[-3.7920848E-2,-1.7912354E-1,4.4048038E-1,2.1920541E-2,-3.2859612E-1,8.487458E-1,2.1198058E-1,-3.709776E-1,1.6897967E-1,-3.772822E-1,1.5098129E-1,7.1075135E-1,4.4171877E-2,-1.5014283E-1,6.1664695E-1,-1.7521124E-2,-8.140159E-3,1.3875618E-3,1.6271105E-2,-1.8857433E-2,-1.0204862E-2,-1.0571809E-3,3.24942E-2,1.19126085E-2,3.540064E-2,-2.3103483E-2,2.3096525E-3,3.917211E-2,5.735425E-3],"categories":[],"categories_nodes":[],"categories_segments":[],"categories_sizes":[],"default_left":[0,0,0,0,0,0,0,0,0,0,0,0,0,0,0,0,0,0,0,0,0,0,0,0,0,0,0,0,0],"id":46,"left_children":[1,3,5,7,9,11,13,15,17,19,21,23,-1,25,27,-1,-1,-1,-1,-1,-1,-1,-1,-1,-1,-1,-1,-1,-1],"loss_changes":[1.6623583E1,5.7174315E0,5.2000856E0,4.685196E0,2.554511E0,7.612591E-1,5.3001757E0,2.8690577E-1,2.003746E0,1.2468014E0,1.2738011E0,1.1694078E0,0E0,1.8368767E0,3.2223382E0,0E0,0E0,0E0,0E0,0E0,0E0,0E0,0E0,0E0,0E0,0E0,0E0,0E0,0E0],"parents":[2147483647,0,0,1,1,2,2,3,3,4,4,5,5,6,6,7,7,8,8,9,9,10,10,11,11,13,13,14,14],"right_children":[2,4,6,8,10,12,14,16,18,20,22,24,-1,26,28,-1,-1,-1,-1,-1,-1,-1,-1,-1,-1,-1,-1,-1,-1],"split_conditions":[7.75707E-1,1E0,1E0,-5.739334E-1,6.25E-1,1.6383966E0,3.75E-1,1E0,2.5E-1,1E0,-1.3038661E0,2.5E-1,4.4171877E-2,5.9420437E-1,1E0,-1.7521124E-2,-8.140159E-3,1.3875618E-3,1.6271105E-2,-1.8857433E-2,-1.0204862E-2,-1.0571809E-3,3.24942E-2,1.19126085E-2,3.540064E-2,-2.3103483E-2,2.3096525E-3,3.917211E-2,5.735425E-3],"split_indices":[5,1,1,5,2,5,2,0,2,0,3,2,0,3,0,0,0,0,0,0,0,0,0,0,0,0,0,0,0],"split_type":[0,0,0,0,0,0,0,0,0,0,0,0,0,0,0,0,0,0,0,0,0,0,0,0,0,0,0,0,0],"sum_hessian":[2.46E2,1.9E2,5.6E1,8.1E1,1.09E2,2E1,3.6E1,2.2E1,5.9E1,9.9E1,1E1,1.4E1,6E0,1.9E1,1.7E1,1.4E1,8E0,3.9E1,2E1,4.8E1,5.1E1,8E0,2E0,5E0,9E0,6E0,1.3E1,9E0,8E0],"tree_param":{"num_deleted":"0","num_feature":"9","num_nodes":"29","size_leaf_vector":"1"}},{"base_weights":[2.4024721E-2,-1.3105454E-1,5.163195E-1,5.0698113E-2,-2.956822E-1,3.155661E-1,1.1270429E0,-1.262327E-1,3.8105354E-1,-3.3697316E-1,1.5027899E-1,7.7347386E-1,4.2279437E-2,1.4714856E0,7.6896185E-1,-7.685284E-3,5.598721E-3,9.52284E-3,2.0196585E-2,-1.6249288E-2,-1.0575317E-2,-2.9328652E-3,3.1294804E-2,1.4775666E-2,3.819533E-2,-2.0456756E-2,9.4179325E-3,3.626865E-2,1.0288406E-1,1.3497011E-2,4.070027E-2],"categories":[],"categories_nodes":[],"categories_segments":[],"categories_sizes":[],"default_left":[0,0,0,0,0,0,0,0,0,0,0,0,0,0,0,0,0,0,0,0,0,0,0,0,0,0,0,0,0,0,0],"id":47,"left_children":[1,3,5,7,9,11,13,15,17,19,21,23,25,27,29,-1,-1,-1,-1,-1,-1,-1,-1,-1,-1,-1,-1,-1,-1,-1,-1],"loss_changes":[1.8186724E1,5.42311E0,6.947605E0,5.0385356E0,1.7573786E0,5.3737288E0,1.6176853E0,1.1482277E0,5.6224155E-1,4.4262314E-1,1.2421962E0,1.3545456E0,3.197062E0,4.2673826E0,8.19962E-1,0E0,0E0,0E0,0E0,0E0,0E0,0E0,0E0,0E0,0E0,0E0,0E0,0E0,0E0,0E0,0E0],"parents":[2147483647,0,0,1,1,2,2,3,3,4,4,5,5,6,6,7,7,8,8,9,9,10,10,11,11,12,12,13,13,14,14],"right_children":[2,4,6,8,10,12,14,16,18,20,22,24,26,28,30,-1,-1,-1,-1,-1,-1,-1,-1,-1,-1,-1,-1,-1,-1,-1,-1],"split_conditions":[7.75707E-1,1E0,6.25E-1,1.17135905E-1,6.25E-1,1E0,8.75E-1,2.5E-1,2.5E-1,1.25E-1,-1.3038661E0,5.9420437E-1,5.9420437E-1,5.9420437E-1,1E0,-7.685284E-3,5.598721E-3,9.52284E-3,2.0196585E-2,-1.6249288E-2,-1.0575317E-2,-2.9328652E-3,3.1294804E-2,1.4775666E-2,3.819533E-2,-2.0456756E-2,9.4179325E-3,3.626865E-2,1.0288406E-1,1.3497011E-2,4.070027E-2],"split_indices":[5,1,2,3,2,1,2,2,2,2,3,3,3,3,2,0,0,0,0,0,0,0,0,0,0,0,0,0,0,0,0],"split_type":[0,0,0,0,0,0,0,0,0,0,0,0,0,0,0,0,0,0,0,0,0,0,0,0,0,0,0,0,0,0,0],"sum_hessian":[2.38E2,1.81E2,5.7E1,8.6E1,9.5E1,4.3E1,1.4E1,5.6E1,3E1,8.7E1,8E0,1.6E1,2.7E1,7E0,7E0,4.4E1,1.2E1,1.6E1,1.4E1,3.5E1,5.2E1,6E0,2E0,6E0,1E1,7E0,2E1,5E0,2E0,3E0,4E0],"tree_param":{"num_deleted":"0","num_feature":"9","num_nodes":"31","size_leaf_vector":"1"}},{"base_weights":[-9.658206E-3,-2.2048877E-1,2.0988904E-1,-9.276084E-2,-3.3973545E-1,5.228651E-1,-2.48928E-2,-2.0460057E-1,2.4102187E-1,-3.768637E-1,-1.0980753E-1,4.3710706E-1,8.6726743E-1,-2.2162247E-1,5.1937336E-1,-1.7747685E-2,-4.9329763E-3,-2.5314079E-3,1.7067978E-2,-1.6682234E-2,-1.2141845E-2,7.5707696E-3,-1.8939892E-2,9.222628E-3,2.3084057E-2,2.97541E-2,4.4899687E-2,-1.340574E-2,8.950239E-3,-4.729486E-3,4.4339947E-2],"categories":[],"categories_nodes":[],"categories_segments":[],"categories_sizes":[],"default_left":[0,0,0,0,0,0,0,0,0,0,0,0,0,0,0,0,0,0,0,0,0,0,0,0,0,0,0,0,0,0,0],"id":48,"left_children":[1,3,5,7,9,11,13,15,17,19,21,23,25,27,29,-1,-1,-1,-1,-1,-1,-1,-1,-1,-1,-1,-1,-1,-1,-1,-1],"loss_changes":[1.1254516E1,1.8801875E0,8.758785E0,2.2453046E0,5.357976E-1,1.4595528E0,7.2916126E0,8.700167E-1,9.607532E-1,1.7180586E-1,1.0896311E0,1.3179374E0,1.7702866E-1,2.9565663E0,7.476952E0,0E0,0E0,0E0,0E0,0E0,0E0,0E0,0E0,0E0,0E0,0E0,0E0,0E0,0E0,0E0,0E0],"parents":[2147483647,0,0,1,1,2,2,3,3,4,4,5,5,6,6,7,7,8,8,9,9,10,10,11,11,12,12,13,13,14,14],"right_children":[2,4,6,8,10,12,14,16,18,20,22,24,26,28,30,-1,-1,-1,-1,-1,-1,-1,-1,-1,-1,-1,-1,-1,-1,-1,-1],"split_conditions":[1.936335E-1,1E0,1E0,2.5E-1,6.25E-1,1.3166258E0,5E-1,-1.1074535E0,1E0,1E0,1E0,2.5E-1,1E0,1.6383966E0,1.0569106E-1,-1.7747685E-2,-4.9329763E-3,-2.5314079E-3,1.7067978E-2,-1.6682234E-2,-1.2141845E-2,7.5707696E-3,-1.8939892E-2,9.222628E-3,2.3084057E-2,2.97541E-2,4.4899687E-2,-1.340574E-2,8.950239E-3,-4.729486E-3,4.4339947E-2],"split_indices":[5,1,1,2,2,3,2,5,0,0,0,2,7,5,7,0,0,0,0,0,0,0,0,0,0,0,0,0,0,0,0],"split_type":[0,0,0,0,0,0,0,0,0,0,0,0,0,0,0,0,0,0,0,0,0,0,0,0,0,0,0,0,0,0,0],"sum_hessian":[2.43E2,1.24E2,1.19E2,6E1,6.4E1,5.1E1,6.8E1,4.5E1,1.5E1,5.5E1,9E0,4.1E1,1E1,5E1,1.8E1,1E1,3.5E1,6E0,9E0,2.7E1,2.8E1,5E0,4E0,1.9E1,2.2E1,8E0,2E0,3.9E1,1.1E1,9E0,9E0],"tree_param":{"num_deleted":"0","num_feature":"9","num_nodes":"31","size_leaf_vector":"1"}},{"base_weights":[-1.888855E-2,-2.444271E-1,2.1576022E-1,-1.2813981E-1,-3.3569017E-1,5.350824E-1,-2.15087E-2,-3.0561674E-1,4.819228E-3,-3.6825338E-1,-7.617906E-2,3.6048698E-1,7.7048683E-1,-1.2401475E-1,4.7036374E-1,-1.7094994E-2,-5.150554E-3,-2.622709E-3,3.834033E-3,-9.509376E-3,-1.5346878E-2,-1.1038686E-2,5.108109E-3,7.846262E-3,1.8220076E-2,2.5492657E-2,4.220281E-2,-2.6246602E-2,-3.9272318E-3,2.5155634E-2,-3.4433678E-3],"categories":[],"categories_nodes":[],"categories_segments":[],"categories_sizes":[],"default_left":[0,0,0,0,0,0,0,0,0,0,0,0,0,0,0,0,0,0,0,0,0,0,0,0,0,0,0,0,0,0,0],"id":49,"left_children":[1,3,5,7,9,11,13,15,17,19,21,23,25,27,29,-1,-1,-1,-1,-1,-1,-1,-1,-1,-1,-1,-1,-1,-1,-1,-1],"loss_changes":[1.3185601E1,1.337677E0,9.258211E0,1.3283033E0,5.910778E-1,2.1013813E0,3.5311983E0,5.6874585E-1,2.2602521E-1,2.3317528E-1,3.655797E-1,5.242412E-1,6.7981815E-1,6.7593366E-1,1.2852602E0,0E0,0E0,0E0,0E0,0E0,0E0,0E0,0E0,0E0,0E0,0E0,0E0,0E0,0E0,0E0,0E0],"parents":[2147483647,0,0,1,1,2,2,3,3,4,4,5,5,6,6,7,7,8,8,9,9,10,10,11,11,12,12,13,13,14,14],"right_children":[2,4,6,8,10,12,14,16,18,20,22,24,26,28,30,-1,-1,-1,-1,-1,-1,-1,-1,-1,-1,-1,-1,-1,-1,-1,-1],"split_conditions":[3.1063905E-2,1E0,1E0,-5.0454766E-1,1E0,7.75707E-1,1.9096575E0,1E0,1E0,-9.409499E-1,-3.110465E-1,1E0,1.9058472E0,2.4390243E-2,1.5562319E0,-1.7094994E-2,-5.150554E-3,-2.622709E-3,3.834033E-3,-9.509376E-3,-1.5346878E-2,-1.1038686E-2,5.108109E-3,7.846262E-3,1.8220076E-2,2.5492657E-2,4.220281E-2,-2.6246602E-2,-3.9272318E-3,2.5155634E-2,-3.4433678E-3],"split_indices":[5,1,1,3,7,5,5,0,0,4,3,0,5,7,3,0,0,0,0,0,0,0,0,0,0,0,0,0,0,0,0],"split_type":[0,0,0,0,0,0,0,0,0,0,0,0,0,0,0,0,0,0,0,0,0,0,0,0,0,0,0,0,0,0,0],"sum_hessian":[2.49E2,1.27E2,1.22E2,5.6E1,7.1E1,5.2E1,7E1,2.4E1,3.2E1,6.3E1,8E0,3E1,2.2E1,5.8E1,1.2E1,1.3E1,1.1E1,1.8E1,1.4E1,1.4E1,4.9E1,4E0,4E0,1.3E1,1.7E1,1.7E1,5E0,2E0,5.6E1,9E0,3E0],"tree_param":{"num_deleted":"0","num_feature":"9","num_nodes":"31","size_leaf_vector":"1"}},{"base_weights":[-1.08746225E-2,-8.485633E-2,6.5562826E-1,1.29855E-1,-2.6848263E-1,5.286937E-1,1.2659822E0,-1.5034059E-1,3.8867563E-1,-3.8158137E-1,-1.2146306E-1,9.3990546E-1,3.0209905E-1,5.664025E-2,3.8152743E-2,-1.1631099E-2,1.3117064E-4,9.549712E-3,2.6648877E-2,-1.1445794E-2,-2.0766377E-2,-7.948171E-3,4.9655815E-3,2.9632358E-2,4.3211304E-2,7.043313E-3,2.5829365E-2],"categories":[],"categories_nodes":[],"categories_segments":[],"categories_sizes":[],"default_left":[0,0,0,0,0,0,0,0,0,0,0,0,0,0,0,0,0,0,0,0,0,0,0,0,0,0,0],"id":50,"left_children":[1,3,5,7,9,11,13,15,17,19,21,23,25,-1,-1,-1,-1,-1,-1,-1,-1,-1,-1,-1,-1,-1,-1],"loss_changes":[1.1881209E1,8.5631695E0,1.7872629E0,7.265312E0,1.9348288E0,1.8290787E0,8.912134E-2,1.1438003E0,2.2022648E0,8.517332E-1,1.1142925E0,1.2783527E-1,5.521487E-1,0E0,0E0,0E0,0E0,0E0,0E0,0E0,0E0,0E0,0E0,0E0,0E0,0E0,0E0],"parents":[2147483647,0,0,1,1,2,2,3,3,4,4,5,5,6,6,7,7,8,8,9,9,10,10,11,11,12,12],"right_children":[2,4,6,8,10,12,14,16,18,20,22,24,26,-1,-1,-1,-1,-1,-1,-1,-1,-1,-1,-1,-1,-1,-1],"split_conditions":[1.6383966E0,1E0,6.25E-1,-7.490255E-2,2.5E-1,1E0,1E0,-5.0454766E-1,3.75E-1,6.919686E-1,1.0569106E-1,1E0,3.75E-1,5.664025E-2,3.8152743E-2,-1.1631099E-2,1.3117064E-4,9.549712E-3,2.6648877E-2,-1.1445794E-2,-2.0766377E-2,-7.948171E-3,4.9655815E-3,2.9632358E-2,4.3211304E-2,7.043313E-3,2.5829365E-2],"split_indices":[5,1,2,3,2,1,2,3,2,8,7,7,2,0,0,0,0,0,0,0,0,0,0,0,0,0,0],"split_type":[0,0,0,0,0,0,0,0,0,0,0,0,0,0,0,0,0,0,0,0,0,0,0,0,0,0,0],"sum_hessian":[2.41E2,2.17E2,2.4E1,1E2,1.17E2,2E1,4E0,4.8E1,5.2E1,6.6E1,5.1E1,7E0,1.3E1,2E0,2E0,2.4E1,2.4E1,3.6E1,1.6E1,4.4E1,2.2E1,3.8E1,1.3E1,4E0,3E0,1E1,3E0],"tree_param":{"num_deleted":"0","num_feature":"9","num_nodes":"27","size_leaf_vector":"1"}},{"base_weights":[1.2192306E-2,-1.1066743E-1,4.3429157E-1,4.259756E-2,-2.4430934E-1,2.602144E-1,1.2086481E0,-1.4430332E-1,2.57142E-1,-2.9299897E-1,2.4994801E-1,6.5355164E-1,1.9757062E-2,1.8774225E0,7.433754E-1,-1.1171593E-2,-4.925282E-4,5.995037E-3,1.5149686E-2,-1.4335852E-2,-8.288139E-3,3.8257884E-3,2.8464714E-2,1.3479918E-2,3.280492E-2,-9.491648E-3,9.68118E-3,3.2681867E-2,1.08044915E-1,4.297518E-2,1.2974487E-2],"categories":[],"categories_nodes":[],"categories_segments":[],"categories_sizes":[],"default_left":[0,0,0,0,0,0,0,0,0,0,0,0,0,0,0,0,0,0,0,0,0,0,0,0,0,0,0,0,0,0,0],"id":51,"left_children":[1,3,5,7,9,11,13,15,17,19,21,23,25,27,29,-1,-1,-1,-1,-1,-1,-1,-1,-1,-1,-1,-1,-1,-1,-1,-1],"loss_changes":[1.2666126E1,3.876811E0,7.3763285E0,3.5360286E0,2.438178E0,4.250494E0,2.9907475E0,9.103548E-1,5.5987763E-1,5.5992365E-1,6.5308726E-1,1.0103683E0,1.7627698E0,3.7199001E0,8.8292575E-1,0E0,0E0,0E0,0E0,